5386.92 334.191 -1190.34 -6310.26 3788.45 3935.38 -971.262 7546.32 590.337 12299.6 972.672 4695.78 -142.819 -1869.74 -1609.06 -1938.1 2723.93 -6657.91 2494.19 4668.56 2706.2 1696.61 462.121 2690.36 7889.47 3009.91 163.435 10470.5 1471.73 -427.029 12334.1 8350.05 -2311.63 -995.535 -420.283 14707.8 2801 789.826 4326.96 4715.05 -3225.63 -3813.3 2183.32 -893.657 5450.41 -692.772 -956.883 -721.332 6551.6 2206.97 5811.45 7118.8 -1343.84 -1059.52 5167.35 5713.22 33.3007 -4449.34 1885.22 13598.4 1792.98 2139.07 4954.91 -733.415 561.783 13529.1 1286.51 3762.32 2835.2 -969.101 -548.465 -4167.73 93283.4 461.047 352.084 236537 -5456.81 -9864.25 -2822.24 159264 -149.342 -20687.3 -5551.73 238196 65990.7 -1178.84 1828.88 -16180.7 -718.299 1483.81 8443.74 -1388.02 44423.7 -195.079 -3981.34 -4482.11 6650.29 876.193 27.1453 10352 -5694.2 11176 -7017.82 7768.39 -390.794 -5497.75 10608.8 11937.1 3105.31 -2262.16 975.761 -10892.7 -3849.72 -2366.7 4771.78 2251.38 6179.76 -3205.54 3010.86 -2965.67 15028.7 -986.824 -1296.97 7110.63 -2232.12 10443.6 -2084.49 19578.7 -996.354 -5637.93 1141.79 38478.5 8853.28 272.785 -613.275 6142.53 4604.64 -3789.02 6618.82 967.764 6340.22 -4299.6 -237.01 903.253 20134.2 1181.36 -2020.44 11736.1 2466.57 -1060.94 1578.79 27302 -758.898 -2467.69 -1756.15 38084.2 10742.9 -1991.09 -274.864 4523.45 2407.18 -1368.86 4729.31 220.499 7199.11 1249.17 -527.228 2350.45 121592 -599.299 1245.15 229643 -1768.12 -1542 1988.37 194783 365.254 -6596.47 -1673.3 279272 75995.4 93.8323 2179.97 2464.19 -5002.97 4365 19633 -704.911 51724 -3160.02 -2678.48 -48.0496 8664.72 -1909.67 -481.777 14211 5058.56 -4864.67 -1206.65 12428.9 -2311.58 4443.35 1045.65 16954.7 4739.27 803.189 -3435.09 3331.99 -4454.37 -2070.99 1027.86 -1088.24 3103.25 2698.9 1412.82 617.866 8578.47 -4186.43 -5579.12 -4336.27 24966.4 -5492.69 -5588.72 -3927.77 7007.51 -1328.59 1182.49 349.215 1133.21 703.03 335.644 1801.5 1144.41 -444.439 -86.9312 1107.99 266.084 1530.98 444.505 269.405 595.709 679.291 1096.93 -15746.6 -2170.94 1227.56 -3227.63 -21112.8 407.179 -2117.19 -320.78 -14164.6 418.489 -2131.11 -1178.01 652.349 3975.82 1732 156.425 2260.36 3244.94 -3935.62 3563.79 -1602.35 1157.1 218.46 -1630.51 2802.53 2128.23 1625.56 -1627.11 -1339.8 2444.54 731.483 -7.27069 305.584 2456.19 1833.32 -170.948 16133.4 -7514.96 -8168.46 -7346.16 9906.88 -6106.81 -6449.21 -6113.8 15166.6 -1482.24 645.541 1116.94 1938.16 -141.331 919.483 371.367 -192.919 1825.85 -5605.28 217.498 -966.637 -45.4046 966.705 4043.81 1742.38 2785.31 1005.25 -3597.71 848.584 813.353 1237.93 -937.774 1024.19 2354.02 2092.54 1441.02 21304.8 -10478.3 -10181.5 -8519.76 23872.3 -11468.3 -11441.1 -11685.7 21783.3 8347.53 -3508.67 -3387.84 -3335.62 7084.51 -2819.26 -2689.06 -3074.48 7196.13 -1221.49 276.016 431.826 -667.858 80.7703 1178.64 1255.88 1967.07 485.26 -2692.59 1658.49 1764.44 1875.67 -171.672 -853.928 1454.19 1131.52 -612.469 3997.06 -2326.57 -1781.37 -6297.52 5332.95 636.564 2948.34 2031.6 5743.22 -1922.08 2522.3 -318.812 1867.1 260.017 568.247 660.653 519.393 430.953 -3053.23 3457.36 398.795 3231.08 -356.701 -392.068 1465.1 1791.71 -650.829 1451.72 1369.1 -6.8867 -2755.95 4006.61 492.036 881.388 630.613 498.687 -3540.47 3303.8 131.236 2208.69 314.078 675.879 1852.48 836.576 -531.734 3024.17 -665.718 -2043.09 -1342.37 1997.24 -522.085 -878.262 -539.422 4788.17 -182.539 -673.654 443.327 845.119 1404.68 1904.43 880.246 1338.86 -369.816 -821.467 1124.78 709.576 -396.117 -177.511 1855.21 2420.45 1302.06 -567.936 7909.47 -2853.32 -2082.46 -2807.13 9840.47 -1126.11 -3071.52 -2745.77 8642.12 