-9315.05 1326.36 3690.11 -1.79811 1699.58 2127.26 2801.62 1567.66 2020.37 93.968 -336.512 3957.21 5147.77 1399.37 -117.328 -923.925 -5812.38 1755.32 -509.211 8948 -3669.19 1102.93 1716.2 3170.47 2437.29 3062.79 806.433 -3159.35 1316.09 3747.87 -3658.95 -126.368 -3124.01 1398.34 2285.07 1070.3 1662.67 1435.9 1248.18 381.301 801.356 693.515 -2603.02 3345.89 -74.8506 -3493.35 2313.4 2199.39 3622.11 1178.61 4977.48 3270.56 1668.85 91.5414 2488.1 1213.04 1463.69 4383.65 -3210.34 2620.9 817.762 -231.208 -5010.18 -850.527 9.2753 1071.87 1303.21 3327.14 1884.5 540.513 -246.444 2193.05 1218.24 3113.15 421.52 3914.49 -1393.2 1863.78 2980.34 -3575.22 -1428.41 2145.33 2153.56 -135.172 512.046 -1877 2262.25 3246.86 -12033.5 -1523.99 2822.61 28.6017 -779.562 184.044 -1307.29 520.743 755.158 -494.321 -314.589 -2394.51 2642.94 2253.17 1808.22 502.317 -1087.56 311.398 669.648 257.154 -691.718 1585.48 -4836.73 20.3704 978.007 -576.568 -184.632 3416.45 984.102 -1098.02 -365.944 -9788.7 1150.2 4268.56 -1020.22 -3383.9 4618.79 -3890.28 -1590.98 -4669.4 -932.5 -381.539 2631.6 -1836.41 -3626.7 1270.99 1690.47 1471.73 -1603.64 306.649 384.958 -1962.88 -2094.12 1876.09 -1271.92 -1609.43 -14658.6 -2628.61 -767.413 -1206.81 697.649 957.163 -3081.6 -1140.34 1996.29 -117.315 -2068.25 1656.74 -2104.39 -1892.91 3971.62 2915.75 1955.57 -518.727 -3758.09 -2893.07 -6767.64 39.3141 -613.141 -483.429 -1942.6 1557.93 2527.53 -5105.75 742.994 -2800.79 -1531.92 -682.07 -198.972 151.757 -924.518 -1915.8 -227.31 -3293.27 -4933.15 1084.17 864.298 -1654.99 -4861.34 -2944.36 472.207 1605.23 971.772 -1746.05 -1016.38 -934.092 -1016.03 251.344 -1819.5 1399.72 2827.8 -2075.79 -1970.91 980.172 -130.983 1068.79 1769.27 -2852.46 949.44 584.831 785.354 -509.41 -2345.22 -2122.63 3154.87 1589.21 -2100.24 -663.139 -1195.33 -1301.38 -1308.15 -1243.87 385.399 1834.77 2658.08 -2275.7 668.877 1106.07 -1144.87 1834.6 -3965.05 -1310.87 -3046.96 -2848.39 1241.64 949.427 724.994 838.078 -14115.8 -6.75468 -3763.03 -937.396 556.936 -1164.62 1967.92 -3613.05 -491.432 2486.35 6282.31 -589.562 -3077.05 -1504.35 2390.95 -2477.73 -1682.97 927.096 -3757 -5253.88 -779.933 -498.674 -1450.01 5212.16 4961.46 67.3226 157.898 -964.753 -2405.02 1988.71 -887.821 -1939.93 1245.15 -974.376 -2386.47 -82.4656 -2925.6 -4669.84 -1622.37 -1605.4 -1692.58 -982.543 -205.558 1823.57 1514.71 2826.76 -222.97 294.358 1472.62 4328.58 -2119.65 280.402 -6497.16 -249.565 -523.262 -3940.33 2410.14 -1798.74 2340.05 -1612.17 4146.75 -950.204 2657.46 710.956 -660.962 1130.09 -2.05887 -1720.8 320.394 -6294.55 436.568 -299.21 -2067.12 1905.75 -2258.21 -746.966 -2430.7 2369.32 -2536.65 -2509.74 580.308 -4161.02 -641.105 -2841.17 1698.77 -2148.91 -1770.67 -3464.9 -5462.74 -1150.3 -144.326 1068.05 562.538 -1123.94 -2040.29 -2298.02 338.826 -2344.09 1443.55 -350.454 -2675.78 1025.37 1486.8 -2384.21 5095.49 935.456 5838.96 -6927.98 -300.096 -993.141 1043.24 -13.9046 828.854 -947.878 -1617.77 1721.38 -2696.09 -215.89 2405.94 -1590.75 3836.26 -1684.34 -580.668 1121.04 -1328.04 3610.75 516.835 438.711 -622.184 -164.288 1366.5 -481.678 197.592 1953.73 -701.657 210.452 -1655.02 -64.2839 39.0301 -1074.87 -994.294 772.781 -879.933 1400.35 654.401 -879.806 -1094.4 276.835 840.792 194.98 1776.05 -1674.52 -1644.63 344.06 1521.11 -430.939 823.41 -633.171 1868.94 -642.806 -2433.21 -453.18 -303.582 -1879.37 -379.958 475.18 -1047.88 -2410.64 497.102 -710.963 494.238 1658.68 1279.81 -2102.46 1735.14 -966.69 -1049.59 -2225.91 254.908 -413.952 7978.7 4224.38 3716.24 -514.488 -1226.61 4486.44 1680.06 -704.388 494.12 1318.51 3193.15 -30.0052 1593.75 1973.63 -1107.56 -1724.83 820.232 3397.26 10444.8 3749.58 -2279.74 -975.454 4140.12 1857.79 361.326 -3268.51 9366.95 4518.47 871.45 3320.05 -1031.38 -980.984 1750.92 1531.82 2104.25 2050.43 1066.38 -184.934 1434.18 -1044.16 -1400.72 90.9888 3676.77 5797.16 1665.21 1681.8 453.965 -954.839 -586.911 612.159 2502.66 -462.026 -1143.95 2195.02 1310.81 2422.07 1892.97 4545.84 2431.22 -475.734 -1012.89 -701.263 2279.68 7932.99 4412.37 -1292.93 5808.62 -200.755 -2854.1 -1307.54 175.207 452.041 1932.7 -2339.82 1217.34 6485.42 3765.71 485.847 2672.66 1673.34 -279.461 1809.84 8173.31 1563.51 -825.484 344.216 -1899.17 -2395.85 1687.86 318.248 360.271 296.235 674.261 -2022.51 2280.2 -2620.51 2033.8 -126.905 3613.43 1367.41 3797.43 125.81 -40.6436 4627.22 649.718 -474.772 414.768 -3.02522 383.832 -1241.37 -2586.42 -532.978 -3144.98 -1097.42 619.078 3172.84 1521.76 -644.52 6223.81 -2411.98 914.825 -1151.29 3164.53 -1534.1 1954.62 -470.605 104.66 -1043.81 963.675 -245.283 805.227 -563.201 7572.61 -531.2 2897.49 751.106 -332.451 486.121 1035.6 1076.64 -1743.87 -265.7 4343.58 171.083 7137.13 4020.45 4553.8 135.428 -883.506 -869.093 2413.35 9583.23 -12095 -517.338 -353.472 -1687.85 1076.95 -276.437 1840.15 -2188.94 781.239 -3297.3 -4643.95 -230.954 -981.885 925.666 1205.36 -2167.76 -1075.33 -6691.14 -2232.71 31.3262 1158.8 1812.37 -5188.61 -842.019 1546.99 882.211 283.321 420.084 -6030.97 1251.13 1095.62 -3559.02 -917.228 -3259.44 57.0079 -3326.88 -4319.18 -2623.48 126.86 2713.42 233.842 -3045.96 99.6261 2575.81 -548.248 23.9258 -7992.92 -1239.42 -2840.63 85.9669 -176.199 738.295 -6169.99 -1299.1 -11261.1 -3577.45 962.534 -4112.55 3120.08 1058.54 -7926.72 -1030.13 2715.9 -8664.32 -792.78 -8638.23 -8074.88 295.062 -5699.68 -2391.42 1568.5 -706.506 812.733 969.831 -5695.01 817.575 -3074.7 1315.09 6379.79 -10.9289 5490.27 1079.93 -1471.84 396.183 -873.983 -5740.34 -1800.53 -320.695 -1809.28 581.148 -811.572 -281.061 -5235.21 -1045.21 -31.1103 1842.14 1906.34 1012.32 -1190.64 2164.02 -330.53 -2722.92 -3235.27 2995.8 316.133 1031.28 735.065 1707.36 -6038.21 1070.29 -667.731 902.07 -1441.91 -3331.67 -741.495 -1124.44 -500.227 -68.6101 -254.434 -1180.54 -1986.51 275.315 -670.079 -662.339 33.4923 336.905 376.638 1177.62 1123.7 96.7517 -3469.25 33.1429 -2258.97 -188.476 -1971.87 1298.76 2081.62 2262.51 1208.59 684.352 -1738.68 2104.89 -1108.04 2152.81 -2163.12 -2282.23 196.301 -493.885 -1992.19 2671.07 95.6254 962.758 -1804.38 1546.43 -129.474 -4595.55 971.625 533.652 1677.46 2109.54 -1760.24 -3317.96 649.195 514.863 32.3668 3037.05 -39.3497 2818.79 -874.135 2048.75 -1885.48 1591.06 749.004 1129.88 1338.24 2378.44 1733.07 -1823.76 624.471 -2041.65 1040.84 -423.724 1422.12 -441.402 1893.05 2449.89 907.709 1775.28 -2335.15 1911.43 111.144 -407.25 1749.33 713.735 174.929 2053.43 1033.8 -604.757 433.73 -409.058 969.235 1308.04 1042.85 938.676 1241.58 846.504 -2314.35 1311.5 1392.13 2003.95 -1765.91 2062 1946.73 1994.8 -275.691 -840.145 349.936 825.7 2175.78 -495.283 2220.94 2017.09 -373.83 -82.6533 -3089.78 -1494.71 1518.74 484.81 3195.69 288.254 -298.247 1701.33 2909.31 -1180.87 1074.16 155.676 -1073.84 116.311 1278.38 1291.05 1788.85 1388.44 -1894.3 540.195 930.6 1876.47 1277.96 240.356 1616.44 -662.74 268.154 -2375.21 1600.61 1831.59 1678.93 1105.3 -9.70018 -22.0568 1893.36 544.825 -2075.27 2112.92 664.943 1720.13 -274.103 619.113 2541.1 536.323 670.654 -2957.23 2268.48 513.018 3033.19 -2173.06 2655.8 2332.89 1756.12 -500.911 -578.155 2027.89 448.754 1070.24 -525.025 192.702 1303.31 1146.74 163.518 -697.458 297.29 1276.64 889.549 242.32 108.216 922.058 1386.29 1615.72 -425.967 1165.28 1143.39 943.28 1276.58 -152.629 1021.42 104.008 1543.56 -3687.83 2227.23 1725.04 2648.09 360.762 -144.382 -1361.16 1905.42 1293.49 -1749.2 933.823 1822.27 268.089 661.57 1845.03 1199.31 780.175 745.715 -2552.55 508.239 1779.28 1189.77 -761.181 1158.44 644.99 1508.98 1648.95 -3370.39 1984.05 1323.02 1567.55 -131.213 2146.72 1133.75 811.893 1463.65 -1020.33 1073.92 -21.0977 1037.49 859.958 627.852 1158.65 294.397 543.135 -853.339 1597.71 1681.68 1197.66 -790.509 849.682 2292.83 1052.04 30.977 -675.364 1165.7 599.419 891.889 723.181 1233.94 1573.47 931.961 338.502 -695.487 1271.34 795.387 637.414 1007.45 850.59 449.93 -534.381 1132.73 -2001.39 1913.84 -263.446 981.54 449.839 931.94 2243.17 275.96 1908.74 -1404.01 1793.83 1508.1 221.531 656.648 837.251 549.232 1624.96 1364.44 -1152.42 824.355 221.91 1120.47 432.184 909.86 1160.02 746.208 1878.73 -2529.16 1429.69 1993.76 -570.238 -43.2107 1403.84 1975.99 1708.32 1024.61 -1014.55 1133.5 1881.86 3335.92 -137.378 986.81 1217.91 551.741 -413.453 -3029.67 2117.06 812.36 2121.65 -99.1682 -73.3 2131.06 767.108 1756.34 -3893.34 1865.52 1986.55 -1281.82 -640.215 2987.61 2474.85 1861.27 478.601 -1124.67 962.977 928.993 158.517 1313.75 836.725 1570.65 849.2 1318.63 -2640.94 1923.29 1332.8 1182.81 -167.706 -250.119 608.051 2341.24 346.696 -616.432 1119.82 564.442 1964.47 -280.377 1005.27 974.894 676.505 -514.679 -909.933 1943.73 455.879 1320.2 1087.13 1040.87 1894.32 228.492 920.425 -497.768 425.613 793.137 932.623 -58.0691 846.22 334.077 458.74 580.785 -432.306 1186.83 660.911 702.538 1202.9 1670.48 -195.924 840.145 627.584 -2026.02 1581.33 1173.54 2031.78 192.265 400.635 2340.94 -488.784 1675.21 -2984.35 -974.93 1633.31 1173.14 1628.66 2498.98 827.937 1727.97 1411.34 -736.014 -93.1402 1882.35 970.228 815.52 428.182 575.358 868.326 179.576 -1302.99 445.892 1881.22 1246.57 772.182 988.84 1883.46 434.983 -46.668 250.99 1033.07 1013.25 852.937 1279.98 541.451 672.91 787.409 678.968 -2931.01 1952.71 1376.62 1270.91 2018.92 89.0988 -1204.39 2120.82 1872.61 -920.328 802.556 937.275 1649.14 -2.72001 847.99 1958.21 748.446 782.199 -2288.88 -435.353 1009.86 884.659 1456.21 188.351 97.9518 1908.97 3264.91 -3515.48 1960.3 3210.09 -1712.35 -257.365 2156.31 3289.03 1457.42 1005.64 -990.483 426.872 483.917 1570.1 520.132 994.796 1083.84 685.707 1268.29 -864.924 1694.21 1124.44 828.917 1706.62 974.51 489.693 -543.482 1360.87 -2233.14 1013.24 43.1494 1648.1 733.341 2557.93 417.952 716.484 840.67 -102.543 582.167 571.571 278.724 712.889 1511.64 1194.13 362.799 405.977 -2409.58 1165.73 977.745 572.465 358.705 1284.38 1540.26 2112.32 -315.778 -2530.03 1275.23 1264.03 707.366 2103.21 -5.52802 -909.365 1469.38 1055.02 324.163 589.045 -12.2973 1685.32 -63.9138 667.131 1357.17 338.958 1169.16 -1145.52 1680.37 1981.4 100.864 992.859 467.967 912.512 -421.328 683.471 -360.84 885.008 933.565 1809.31 -579.247 346 1719.4 -491.522 551.354 -1808.23 2388.16 1874.74 949.832 1222.39 2522.84 911.496 -2005.17 1290.72 -866.625 738.199 1294.43 1676.72 671.557 1223.16 1099.77 -113.284 489.937 -1727.97 1835.53 1400.66 292.424 686.711 1529.18 468.71 1185.09 874.797 -3558.91 2383.32 1758.44 1916.62 2908.18 -785.681 -1303.71 2392.6 332.148 -1899.45 395.872 820.284 55.0603 1512.95 -358.791 461.632 1113.34 1469.03 -932.414 378.513 1341.77 857.516 -399.624 975.799 943.078 1311.46 67.3478 -999.8 519.91 1137.9 1510.63 1241.36 1514.21 1301.57 -1169.64 1249.53 -4399.4 1530.56 2853.99 -1752.79 205.342 2924.59 2104.52 2370.15 1483.96 -5109.1 -3576.49 2023.53 1174.24 3929.24 1742.49 25.328 2259.92 3587.5 -2057.1 1493.57 1185.37 2098.31 1595.54 1445.77 633.726 -164.392 690.561 -1376.46 1408.42 1496.14 902.101 468.752 701.125 1833.45 1113.31 272.718 -1542.26 1735.77 892.161 851.333 1418.36 2027.28 1688.31 -1157.37 1686.63 -2083.8 1809.3 1090.51 1279.07 1806.52 1175.89 995.987 -1894.29 1608.55 -1658.14 2776.95 -32.7724 1755.96 -1295.25 1473.69 2936.12 686.955 137.88 -2540.05 -34.2278 1091.73 1791.9 1537.37 2228.81 404.345 -262.103 1281.69 -1021.5 965.161 1176.11 155.706 299.57 773.207 -458.806 822.456 659.307 -2026.45 1464.96 1387.18 852.376 795.351 -281.222 394.216 612.991 1575.43 -679.15 927.522 518.022 1670.16 639.471 166.868 620.209 993.265 790.506 -2272.21 30.8 623.443 565.682 1090.5 857.371 83.3627 2064.52 1840.94 -6267.59 3610.27 -853.865 1003.42 -673.207 3820.68 2824.63 1426.86 2113.38 -1547.72 114.373 1800.56 2659.34 -719.074 661.307 1974.55 -92.4262 332.077 -2012.96 1916.66 277.221 143.634 326.56 2041.28 887.834 678.929 1886.05 -2465.77 1662.57 2260.47 2579.23 272.663 -277.148 1245.28 -895.796 778.782 -2130.69 1483.66 1028.62 1851.77 -363.027 1266.3 500.993 885.071 1157.19 -2111.58 748.976 132.748 355.724 2317.57 -954.718 2369.74 -325.517 3081.74 -2225.98 1611.14 2150.91 265.546 -86.2453 1219.11 2014 2146.77 -130.786 