23975.8 5366.48 -654.907 4624.11 19788.2 -642.109 -917.998 691.742 21450.4 1516.35 983.714 580.447 8084.34 -17072.7 -3105.41 -1981.85 -3892.18 2286.85 16678 -3476.76 7160.79 1840.37 4887.3 1019.98 -4544.4 -2506.37 1008.53 -2993.75 -5282.7 -453.076 437.838 538.969 -6096.29 -3298.17 1693.13 591.79 6283.95 1029.36 983.898 654.867 199.347 132.424 -1936.09 1536.23 2527.16 -353.57 83.4925 -5001.33 -2416.11 -3033.5 -12975.1 -1205.41 -1917.75 1058.67 1222.9 -759.845 -4115.73 -6232.96 -2288.99 1207.98 -1846.78 5417.12 -1250.89 -1013.95 8442.25 -508.43 -3425.23 -3.95681 396.356 789.057 -11757.8 -7651.36 -21781.5 15253.3 38756.7 16556.9 6832.82 2196.69 -3785.69 14060.6 -9725.76 -1477.97 32467.6 34839.9 232147 2670.48 -3779.93 -2868.01 138664 -650.834 -259.974 -2239.1 188851 -3549.55 2009.89 21359.7 -14349.4 -3562.53 1138.97 7933.28 -10168 -1137.47 663.762 -494.134 -18044.6 7208.65 2697.69 482.846 3931.76 -9024.85 -2799.24 -1916.88 10771.7 4721.59 15691.2 -3050.94 3258.83 -9445.93 7448.72 -1689.64 4253.27 8172.85 7572.22 4347.51 431.746 -6899.46 -5152.52 2143.15 1105.23 1122.88 4758.51 6125.74 -3780.25 -13412.2 -3837.02 -3149.35 -17423.1 790.803 2286.44 -3147.56 -12207 2017.75 634.45 3686.75 1000.1 1417.55 8651.81 14.495 240.508 2713.62 752.599 4866.11 1561.34 1619.08 4403.77 2475.4 3506.65 -5720.26 -3202.2 -1779.22 -5429.02 1253.14 3119.75 -2072.75 -2807.47 -808.624 1060.91 1043.38 -941.084 12131.7 47232.1 22521.6 7973.06 -632.96 965.296 16021.8 -773.205 -568.858 19206.6 22566.5 149278 2243.93 -543.247 737.668 56411.3 -2741.29 -3476.5 2097.27 101682 -1866.92 954.379 17913.3 16949.4 898.818 2023.43 3592.43 22073.6 -16.6695 3485.15 -402.742 7679.3 -1625.06 14425.1 5279.94 56290 6811.37 1785.17 -83.6036 19859.2 360.809 -13493.9 3069.04 50300.1 3395.13 -3613.54 2224.35 4676.14 2309.3 -3012.87 -2721.53 4356.73 279.94 2805.39 3263.91 5066.88 -2971.78 3379.22 542.933 896.409 1493.77 247.403 4449.67 2917.44 -734.976 -1652.43 638.271 -372.747 1869.57 -3153.71 659.653 -603.567 609.326 588.905 -540.065 738.585 -1045.93 1237.84 -1226.93 568.669 -721.45 1253.59 6.16013 13169.1 667 -2316.47 -3271.84 16162.5 -453.384 -325.298 1192.38 12282.7 -3337.74 1619.28 1155.85 1541.44 -2184.75 699.29 788.538 633.995 -1012.49 -2970.1 2154.39 1981.81 1929.81 -914.542 -1270.85 263.175 663.157 -366.059 -691.065 517.277 267.223 854.941 1298.68 372.685 221.74 74.8618 1452.46 1344.46 1594.98 -2002.07 -186.89 2133.88 1651.7 2589.22 1632.79 2471.66 3316.12 -601.562 -3211.23 -1104.2 5432.24 2318.13 -1084.8 -1157.61 3672.65 15794.8 -3077.25 -2879.05 -2312.17 21353.8 -148.495 -4208.25 -2260.68 13816.8 2856.27 783.548 -27.0694 -793.591 4856.33 -2166.66 834.006 657.703 1888.6 35354.2 -11562.3 -12344.5 -15863.4 36295.1 -7688.93 -14431.2 -12397.3 32177.2 -16513 6316.42 4899.61 2949.58 -12768.6 -2652.15 2594.09 2899.13 -9276.87 -4131.9 2242.29 1875.46 2570.09 -881.457 -206.534 1509.14 1030.21 -1828.64 -2660.22 877.407 1463.91 1446.26 145.949 562.415 1136.99 555.844 -1594.87 -12992.5 630.456 -2541.2 -2232.17 -17974.7 -6045.89 -3697.98 -1796.98 -6547.74 1231.49 667.765 899.003 -76.8726 1377.24 193.13 203.253 560.839 1505.53 -1617.78 2463.01 -4169.31 3439.79 -733.569 2423.97 1597.02 -621.971 1365.99 2000.34 1132.05 904.469 -2190.11 1351.69 487.713 225.406 292.577 2311.28 21743 -7180.13 -9539 -10331.9 21033.6 -6222.16 -10425 -7645.01 21671.6 -1323.73 3293.39 2073.83 -132.42 -1665.33 -322.044 3644.78 2979.8 -1204.29 354.584 609.231 -1429.71 1160.14 2378.01 1535.92 20.6311 -269.622 1734.03 107.793 -630.058 -1139.99 1783.69 3998.97 878.642 486.422 1383.69 2275.13 