1013.66 51.6609 -1617.95 -5713.13 -1724.52 2425.97 535.094 5362.34 530.913 -179.978 -8578.47 1637.05 -3997.4 4419.25 414.428 10738.8 -15398.3 -121.718 -6271.81 -4511.18 -1558.95 -210.196 7.76229 9002.77 1061.74 -594.532 2351.25 -10514.8 67.2373 -2098.55 -2581.48 -2410.41 -8451.26 -256.804 -4662.74 1029.61 -1985.2 -1519.27 3540.66 -6776.52 -821.593 -5723.4 -3120.83 1458.44 -2287.83 1630.01 -526.133 -12325.8 342.754 -3462.61 -1662.38 1190.16 -5759.17 -1759.22 -1222.82 991.659 1184.66 185.564 431.711 6185.41 -2438.3 1098.24 -1883.67 -907.84 -5768.88 1825.91 -1066.28 -1447.86 -3680.72 3358 1600.91 -611.139 5813.11 -399.142 -994.53 2873.41 -6964.84 -3536.65 -202.434 -4772.85 -988.631 -691.139 -8534.98 4318.98 -169.513 1542.05 7899.39 -1721.69 -8519.31 821.032 -5712.76 -392.336 513.013 -3139.33 147.136 5026.86 -2003.15 5359.76 -635.021 4136.26 -2392.04 1454.3 -7257.07 -1553.06 1012.84 -5562.48 4572.25 2668.89 -430.206 -2491.08 368.069 5462.31 870.668 4205.36 -2700.31 8034.78 -325.466 1557.13 1341.8 921.43 4761.05 764.612 -1733.8 -1827.87 321.972 529.204 2098.99 1880.85 -7774.46 2170.58 -4759.99 -9438.27 2888.62 2550.7 -9619.88 3250.43 5281.76 3649.56 2423.57 1386.96 -14172.7 4753.02 -4781.16 -3969.65 936.684 1665.07 1021.56 684.719 -229.872 715.177 -1990.21 3143.61 -1271.22 6842.58 1276.72 -13187.5 -3576.36 1004.51 -12463.5 -1194.63 1402.35 3080.79 -3759.12 -936.222 5840.54 1985.99 575.681 1287.3 -555.381 -2128.07 -3063.95 -674.974 -940.201 3310.21 2423.96 -468.402 8846.53 -1935.22 -2593.65 -492.716 -3940.03 -744.273 559.809 -3094.92 5990.47 883.399 -723.227 9069.64 -890.487 -8.54893 540.951 -4893.78 -627.56 -2708.31 4003.2 -4416.47 -4077.43 1677.6 2323.72 433.02 4739.99 -3314.96 -159.51 928.934 -840.15 -4810.63 -370.115 -901.331 4310.09 1823.22 -922.439 12562 -3370.2 -709.162 2078.85 551.007 -100.01 -2032.58 -5209 315.58 1111.95 -4708.9 11319.2 3446.71 -4115.48 -2290.07 -759.705 2516.7 3532.92 584.99 -4438.37 -3216.17 4744.47 -3514.66 1102.65 -3168.92 1051.01 2917.63 -1277.6 14134.4 -1570.15 1894.57 1753.9 10454.2 -1986.11 1013.97 -528.253 582.222 -1188.31 -915.993 252.362 2892.21 -806.672 1272.31 -2076.88 1961.96 2522.38 3204.12 -2486.16 2237.33 111.571 -942.817 -2405.53 261.017 356.276 -241.65 4300.34 -1050.25 -993.131 4299.89 1103.85 360.351 4163.23 725.049 4268.94 1968.84 6845.25 258.136 72.0711 -1731.14 1107.87 1381.79 1049.35 2989.03 2541.87 1308.42 239.472 1313.22 14587.8 -1521.07 -1823.75 2345.98 -1345.18 1055.48 1603.85 -121.49 -3929.29 -1345.42 -2085.78 3056.55 425.451 -628.002 -3623.34 -2201.81 4102.82 1819.81 4337.13 -2229.85 -0.232243 4803.29 6841.51 5327.46 2037.57 -5592.35 -1712.44 180.285 3182.41 -1431.95 508.512 737.211 3523.56 695.595 1395.59 1719.61 -1968.57 -3124.21 1462.66 304.578 414.199 4158.8 10466.1 8636.69 4.33768 281.803 -611.153 3377.63 1270.9 73.5747 5807.39 1125.22 2309.56 -3013.58 -1644.83 65.5945 -494.652 -56.9299 -378.159 -2127.06 3153.45 2598.41 -2024.45 1972.87 372.066 -2538.47 -2590.17 -3751.88 1817.74 1039.61 -2897.92 1781.4 987.179 1571.09 148.748 -3976 2338.47 2326.55 -5031.83 5.78018 1643 -4132.56 326.137 -3352.79 -1140.2 1404.05 -1385.26 1091.84 3851.93 1584.91 -2835.58 2142.48 -1286.77 -2293.96 -2589.82 -4251.35 1227.7 4790.28 -2912.59 -2601 -677.241 941.88 -1933.7 859.837 -1773.68 -988.839 -2520.52 -2811.26 1788.52 -3019.19 -1714.51 197.251 -1713.33 161.683 -908.671 -344.428 1224.33 -2593.89 5935.59 -2183.21 2041.21 -2015.5 11712.2 -1329.66 8385.97 -1212.48 3435.67 393.001 1006.92 -1817.51 917.145 2278.28 -1702.39 -1939.68 -1008.09 1242.7 -2010.82 -1114.85 -1624.73 4112.98 5317.08 2203.2 2666.05 -3634.27 2328.63 791.789 -2535.94 -2690.75 -3988.07 3994.63 2942.01 -3771.3 243.77 -3402.04 -547.976 -2496.77 -4448.13 3315.16 3159.86 -3068.96 -1748.48 5043.89 -2455.55 -60.2942 -6578.13 -1106.11 -6154.76 6762.84 3772.58 4458.12 -465.584 -2784.9 2267.79 639.956 -4822.6 -1092.8 3230.46 -501.847 4665.45 -1245.55 -4830.61 -1315.73 -2158.35 -1964.09 -2153.53 -4040.58 -1845.84 1177.58 366.921 1619.88 -3187.75 3817.99 1779.16 926.282 -1680.7 1481.49 -1533.37 -1610.88 -3545.01 4159.01 -359.892 2933.33 -10.9159 2111.17 -1447.69 2364.74 1588.01 2328.08 -2538.61 2578.33 502.039 -2413.41 1462.92 4159.91 -1780.32 348.28 -3006.16 -1079.87 -1383.99 -706.17 1849.85 2757.38 636.97 -1468.38 -1300 -2155.63 -700.107 117.022 -1588.93 -2226.54 120.583 -600.84 -3319.78 1852.89 -2278.88 -2163.01 -2452.59 -730.91 -3001.34 1372.09 -958.144 -492.079 -448.684 -1393.18 -2377.26 2019.95 -3627.89 691.172 -4186 1437.5 -2744.23 2203.28 -1262.25 1191.95 1954.48 808.299 -717.358 -1529.56 -506.253 1105.81 -3989.61 2842.97 -609.808 1296.92 -2924.39 179.294 -3479.78 -1897.79 124.41 -1220.51 2907.08 -588.742 1707.51 93.9475 490.939 -1228.8 -58.1186 1052.04 -1613.11 2925.71 -6726.15 0.58455 -5079.45 1125.01 351.899 4005.85 7578.02 -690.312 -2816.11 1142.99 244.994 -2550.71 -320.861 5514.17 -4007.46 -3158.17 -2444.58 -1056.26 -2442.99 -298.954 -6134.76 -4503.52 58.8863 3176.98 -4212.19 776.181 2975.27 -1659.54 652.668 -1152.76 250.22 3377.03 2760.94 -829.908 1766.13 1582.58 1175.84 2420.43 -1860.87 1974.45 988.908 577.324 251.46 -119.428 2813.14 1700.76 -3419 410.025 -928.357 -5860.69 -2552.83 1684.06 -3410.52 -2131.36 -2114.9 -1758.34 -315.528 -1410.82 -5227.82 2324.15 5084.76 -466.834 -617.025 2832.52 -811.146 -926.704 5091.67 -253.245 2797.21 -7010.65 2185.62 -2400.37 53.4216 -3619.19 25.7185 639.672 -2098.82 -2916.48 379.561 3901.77 -3444.32 -6889.12 1829.13 933.351 -1328.02 5939.24 -1654.43 -14158.6 -440.593 263.534 648.337 -212.578 -364.989 -2175.71 -11611.2 -25.026 -3195.91 1285.47 1748.04 5229.62 -596.078 3361.62 -6172.53 5393.45 -3229.93 -5679.59 -489.942 9973.41 -2018.57 4571.07 888.44 -305.518 9239.99 -2105.94 -3876.05 -3610.33 5334.35 2039.32 -2533.7 -1264.68 2863.76 4799.18 1793.77 -1560.4 5011.48 1494.93 3779.44 18125.2 -1031.53 -321.728 558.773 916.873 4371.13 1048.76 -321.097 -1259.19 2790.46 1547.49 917.62 308.285 1527.73 -9223.84 2469.92 1044.66 -301.122 -443.591 -3266.31 -1077.2 4366.5 -4922.68 4154.68 706.715 1771.18 -298.172 962.183 -3984.48 4628.95 -416.257 -3775.08 686.82 -2714.42 1649.43 1411.08 -368.529 -2165.07 1033.45 -835.569 647.95 2166.34 2455.08 2025.82 -2706.74 2061.47 1003.62 2665.32 3210.2 565.032 -3037.37 2507.37 -893.44 777.341 1783.88 952.064 200.477 611.247 1753.77 583.78 1146.55 -929.805 1515.09 639.812 1111.3 2929.46 -2150.93 1673.31 931.445 647.671 1154.94 1197.06 1330.66 728.091 967.452 -1642.32 437.083 1177.07 72.1229 2329.12 -143.254 1387.52 281.42 1408.57 2120.94 -1485.26 -2416.08 3032.24 1849.47 1141 -1198.07 1509.06 -34.561 48.4432 666.403 1759.87 -1040.96 2558.35 -2819.21 -3073.41 4312 3112.6 -270.457 3257.17 3818.87 -4911.31 1063.31 615.029 866.945 544.653 -39.0388 927.757 1209.54 571.531 699.301 985.325 -1936.06 2151.99 417.165 1316.21 2411.88 1655.52 -597.395 1135.46 -865.054 502.375 229.063 1545.52 1707.61 2542.45 396.31 -385.531 -479.823 409.264 24.3383 1834.48 -633.764 2435.42 -662.31 1135.42 1005.68 285.484 2518.11 584.878 511.832 -996.399 -295.59 2106.56 2117.03 -2625.75 1532.41 1199.95 1765.66 169.59 -231.281 1341.37 161.874 -369.416 597.881 709.124 2432.28 3143.76 -238.343 1777.85 3114.68 -2714.2 592.599 1857.25 -2684.93 -109.334 1049.01 -1034.46 2403.64 2490.09 -2794.25 1134.7 2023.75 -454.617 -2084.76 -230.76 587.597 1112.24 2305.69 775.586 524.213 719.349 605.211 1674.38 290.296 1027.04 650.776 317.842 2547.77 -395.986 -1341.94 2940.63 -1051.37 -516.499 1111.96 1959.51 1473.5 468.294 213.447 725.437 377.764 1099.42 -806.038 2631.53 399.008 690.514 4265.8 -400.867 -2192.97 1460.38 430.048 1480.2 246.178 1155.78 643.209 -143.069 -207.062 215.35 1735.66 1775.54 -782.688 4575.45 -660.534 1143.53 2587.12 -381.758 -1257.57 971.632 1282.93 772.615 -966.051 2174.57 2693.64 -1416.3 2266.33 138.824 170.892 593.503 -7.83861 4884.98 883.181 -2884.62 4353.15 -1124.68 -2575.34 5227.16 889.685 -1735.44 95.3715 612.673 1176.84 1350.62 1404.94 1719.48 788.943 2663.43 1126.18 499.989 411.045 1200.3 3776.53 -906.955 -3788.8 2906.03 1096.22 1325.04 353.701 736.105 1527.42 -4230.52 133.811 2080.17 1921 -3329.95 1536.08 2881.09 1879.09 1965.37 755.806 -185.392 1207.3 -382.33 2427.3 -1761.91 2394.14 -715.933 976.261 2979.11 -681.789 -1326.52 2064.03 811.058 737.33 1806.08 -419.104 858.503 -1197.28 153.541 1780 971.017 1426.13 -144.685 622.434 1012.68 -1343.09 -258.982 974.264 775.236 1635.93 482.697 658.524 1766.44 -136.739 331.028 506.206 -421.449 966.638 1753.92 -4067.81 1308.81 2304.63 768.574 1004.16 2272.55 343.378 933.999 1823.6 1429.44 1239.16 -486.55 892.646 810.574 -894.634 2484.63 1577.23 -654.42 1783.79 -2034.36 1213.55 690.155 431.49 -521.072 363.288 1758.77 2156.12 2064.66 486.505 -431.77 1252.09 2282.11 -1768.76 1247.9 865.445 -1798.13 1225.76 1878.08 408.399 2138.5 59.6461 1394.9 -3141.34 258.882 2359.93 516.283 809.422 429.765 1846.43 499.822 679.419 -619.018 1832.11 -410.944 1759.73 2444.38 -486.609 1835.17 1639.23 -3732.07 -144.214 1820.87 2254.86 166.974 -622.747 2075.99 776.955 838.464 -466.268 1126.49 928.811 1354.25 90.047 1788.67 678.369 1442.14 1793.29 968.892 -719.183 442.153 -20.3448 -1298.34 793.45 287.91 1491.7 1532.12 -60.7444 1883.72 1122.4 120.895 -269.962 757.993 2049.67 861.153 -1213.55 1864.71 -388.105 973.174 1793.42 2495.28 -140.166 24.0928 1419.97 1603.51 1191.98 483.069 854.705 -65.8064 -512.528 1128.28 537.365 2178.44 824.155 2124.91 798.853 -538.392 327.072 807.299 1280.65 2240.91 -3775.13 198.748 -1166.13 1769.93 2202.2 2813.99 1047.95 1629.68 46.3587 2617.59 -1322.22 1168.72 -2152.18 1724.47 1509.38 -587.461 687.984 3197.8 712.283 -1857.69 2476.11 3047.43 1128.63 -1318.32 1017.31 1700.27 -253.274 842.491 621.581 -442.438 -1480.62 781.473 1530.89 1143.41 2950.48 -1690.37 2681.27 -164.785 -470.559 2074.76 1291.2 -559.467 592.307 1993.73 731.011 1471.08 3757.66 -4271.33 1068.6 740.405 117.94 1291.07 209.981 -314.309 1223.79 1220.07 1704.62 250.765 -1266.39 1275.4 -1544.08 1800.33 -337.769 1366.74 1294.02 567.782 -520.542 1097 1245.37 -219.251 -776.926 1433.6 -175.224 1351.13 1923.11 2190.29 -84.3426 604.037 558.916 505.516 1362.85 2156.81 570.755 -660.305 738.456 984.587 1408.19 1612.52 -464.541 -588.129 1084.91 1452.85 136.566 1849.59 566.627 -416.878 14.4217 137.563 916.148 1064.89 1264.72 731.172 1411.5 -859.059 690.345 775.553 594.811 679.679 1783.79 -1224.17 20.2543 1299.72 753.476 2086.36 -275.384 964.192 206.235 1264.02 328.054 564.164 -191.008 925.369 791.238 1549.4 -1532.54 2045.52 164.978 1115.93 1982.86 636.284 -564.005 2544.9 -1270.46 2044.03 1623.81 2119.76 -1212.71 1519.69 -276.22 1944.72 540.662 1958.41 962.604 -755.733 1249.01 1548.52 -1565.34 2313.97 2502.35 -2010.08 -638.424 574.277 2366.47 1534.05 1020.68 1942.62 -1551.63 632.15 430.142 1444.91 215.531 803.385 540.533 1615.99 -3520.34 1595.52 2221.98 1049.83 172.704 286.592 673.866 -70.1984 1094.27 142.374 1526.79 891.674 220.06 1282.4 1004.26 1042.93 1012.39 806.841 -374.986 1076.28 -1714.98 1008.28 2731.65 2284.34 157.575 568.901 508.393 950.633 -262.768 339.531 545.542 827.222 1290.3 423.973 73.5064 735.415 -316.693 1140.2 1967.42 121.577 378.034 1525.35 1648.91 -725.61 1237.98 -159.787 41.9345 2096.1 1518.11 2342.53 353.457 -260.042 1957.81 912.058 -1237.2 439.647 1299.34 548.873 1786.24 1038.22 -1360.7 2726.11 98.0138 -561.147 1777.53 738.72 1127.63 423.787 -88.6442 392.619 1510.28 1864.09 1634.71 -45.202 -152.853 -1194.53 1664.2 905.199 495.529 2534.5 1521.8 671.376 -121.88 -3023.88 1350.33 902.8 547.681 624.367 -935.592 1099.4 -1624.46 1043.15 1478.76 1861.73 2094.02 -2906.94 3832.02 -866.982 901.634 3472.47 1842.34 -1229.97 2696.93 1221.59 1276.58 -879.482 910.369 2352.83 -1410.63 1550.46 1548 -293.386 -2359.08 716.801 1861.7 1899.51 452.125 75.4017 1363.98 1861.22 274.096 2404.75 2629.26 -5304.75 2603.61 -1381.39 -459.091 4098.22 1515.93 273.022 1865.62 -1084.91 3339.23 -144.731 2167.38 3518.53 -783.355 -2023 1742.89 1465.67 583.301 179.615 483.293 1159.85 -773.869 1280.57 224.307 -201.299 2306.76 2034.51 -535.644 542.188 1618.45 -1870.21 -383.574 516.749 814.4 