-885.094 113.848 1669.96 -2713.44 -624.875 2792.28 1014.84 630.8 2299.55 -509.411 -318.347 1187.76 2159.98 937.791 1473.64 -483.412 2204.42 565.582 -434.629 623.736 652.968 1543.33 -3688.78 -250.713 2025.24 -1931.42 1751.67 878.152 -512.996 -4363.34 -3190.3 -624.047 -2135.52 -48.4505 413.812 127.856 2653.79 1787.98 -1834.98 385.621 -730.678 257.457 -117.515 544.562 -1742.3 636.368 1870.92 7298.39 1180.36 -517.659 1419.63 1477.35 106.274 -1500.26 -808.2 1035.22 2346.42 1865.46 381.556 -790.836 -1568.06 417.978 -93.0369 679.664 -842.383 142.677 240.918 -2174.06 -158.582 4914.21 -227.477 1247.81 -5857.16 -695.3 -1151.7 -439.708 -3550.56 -5425.7 384.092 -2412.57 801.626 542.631 -2505.38 1284.74 2254.75 123.897 289.062 -5793.79 1049.47 4883.57 13587.7 944.292 -411.768 8202.74 998.303 -8968.35 852.305 2226.01 1558.29 -4881.06 4063.56 2016.5 3407.32 -701.66 3386.17 821.225 3596.9 1529.68 1919.33 1769.3 -19326 -512.574 1260.64 -9594.68 171.524 2583.95 -1707.35 -2749.19 422.884 6601.76 95.036 -148.484 1212.04 -2953.02 2457.25 -947.833 -1594.8 -4990.76 2852.18 -2234.3 -13600.5 -56.1784 -1840.44 1190.86 -5719.08 -4311.97 948.386 1695.76 -384.692 417.874 617.424 -1183.05 370.176 -780.507 -217.673 -160.405 -83.1905 553.275 1495.05 1282.83 3782.6 5610.11 1365.36 3535.88 3384.89 1006.99 456.781 2411.36 6499.22 292.653 4148.62 4420.93 -1009.54 4510.74 -2753.31 624.176 829.259 -3664.1 -4102.26 4141.49 7539.06 5216.94 370.187 1866.19 2511.88 776.818 1397.9 -930.957 -1804.1 616.81 18114.3 -283.423 -1496.03 4619.65 2638.11 1571.5 -367.597 1297.55 1501.32 2601.19 2154.86 3174.65 2692.04 -1868.3 1002.07 630.97 -1683.01 -7295.13 -1020.78 4005.69 13847.4 1106.92 4219.69 -798.193 281.257 3092.76 1880.46 1022.26 1943.49 -2417.39 -1525.08 158.608 -1052.72 3777.61 873.759 297.415 -3898.42 927.085 2407.42 633.871 292.121 -349.942 7265.93 1109.2 7221.82 353.58 9527.06 6253.11 5653.11 1384.67 3006 -2995.11 1321.65 1397.76 -587.845 124.411 163.227 -93.4858 2021.79 6664.24 596.894 1716.04 2251.09 -1032.75 -3031.5 -2771.76 -1331.83 454.832 -209.583 -9122.85 -1690.77 2994.06 6022.06 -85.0782 1298.18 -2047.56 374.17 1920.48 215.28 2046.25 488.369 -3991.27 1432.12 -3399.11 -4199.88 -6258.79 742.455 1852.99 990.51 -2870.63 1361.47 1345.25 -663.346 -4337.91 -287.713 643.884 6.58867 -257.638 -3085.7 2625.46 -1863.69 -2368.05 -219.605 -775.682 876.813 161.963 926.707 1119.71 583.112 3524.47 10403.2 -6656.05 3573.17 823.148 -3673.34 -254.465 -631.695 3299.19 848.145 -1177.74 1099.27 322.453 -498.948 1787.23 655.912 1427.01 607.501 -3450.57 -231.034 -2680.72 128.396 2464.1 7362.34 -3882.43 1387.69 4149.89 -1231.81 -40.2728 -165.122 573.046 -5416.76 245.585 1266.1 -447.83 -944.838 3386.18 1162.62 -4435.19 -1483.26 632.354 -555.997 2991.22 158.43 -3583.03 -243.729 1747.12 -1119.41 1089.08 2293.05 1814.66 591.323 249.297 6188.96 915.183 1590.03 485.198 665.212 2231.07 205.782 -1571.57 1232.88 680.978 89.2623 3289.19 -1468.86 -890.789 1123.62 -530.161 -108.239 -286.763 1205.7 5148.66 254.427 610.718 31.3399 -497.791 675.304 2224.41 39.4076 2481.99 1530.9 3252.32 823.689 5062.44 1843.45 245.291 291.714 580.828 802.33 1134.63 1721.75 1264.13 566.032 -918.583 871.195 -140.88 2183.18 1288.01 838.551 195.048 6318.54 -1211.73 1241.35 2390.61 -1066.5 1318.35 1945.87 575.855 -1374.48 -257.789 -2993.53 -4570.55 -247.727 -3071.82 -412.29 -98.6801 -675.866 1332.03 -604.207 1513.06 -196.607 1522.98 398.792 2225.77 2943.03 241.154 1493.06 1108.08 1623.4 -294.137 1977.07 653.235 478.423 92.8794 2928.82 872.904 801.646 -19.1104 2260.38 504.94 1775.83 1378.06 517.226 1918.37 1801.37 -2.23168 635.266 309.525 968.623 72.7465 1780.31 814.983 1383.27 522.001 957.024 -145.857 469.254 -91.556 257.799 2578.72 57.5278 493.297 1339.88 438.552 843.752 607.238 617.967 358.258 200.668 154.024 1213.66 2638.5 2193.84 588.187 386.1 357.177 310.069 901.967 27.3498 676.355 1529.02 2304.15 532.53 2507.46 742.891 1079.99 1322.81 -1004.63 38.1577 50.9113 43.5907 21.8907 507.086 125.468 -10.1803 188.214 917.816 -8362.57 3560.23 -572.793 1534.65 1907.34 6293.73 -1478.76 -14394.7 -29586.7 -35.9073 -9090.83 -4224.67 -1128.23 562.503 -625.02 -81.432 -83.3433 -4167.92 222.024 4227.9 -5802.33 -2964.3 -1649.79 -991.379 -4407.13 1518.19 -271.296 577.272 4026.1 151.075 3088.73 -470.291 252.541 832.986 5895.94 -1001.71 -2422.51 -6016.87 539.042 -774.899 -285.402 17.1507 -3758.86 -2295.75 -7902.86 121.445 -79.4444 341.522 106.859 -2866.94 -924.447 146.497 -759.8 1907.64 -688.966 50.9215 -2.0266 419.773 772.172 -7545.93 -1869.36 -4788.26 -2531.73 -3054.86 -3119.09 -2205.26 1274.59 3211.19 -8390.54 334.743 1374.48 -380.816 -2472.46 -285.932 228.86 -1979.51 781.871 -4296.87 -2825.44 -4567.34 140.433 -9021.42 3458.21 2602 -974.7 -2227.06 -1872.62 -650.46 1290.68 -7535.12 -744.993 1373.15 -10917 -3389.86 2240.47 -6.22991 -1471.63 671.682 8282.65 4596.41 -5765.46 -20573.5 -19247 -562.804 -1243.96 8259.07 1982.52 2141.64 17891.6 11276.8 -9995.45 5417.1 3089.89 -659.48 850.321 -4620.06 750.796 886.487 -9083.39 1722.28 639.256 1110.93 661.645 -2008.64 -56.7638 555.987 1007.72 -4822.72 -9365.11 646.788 -3011.81 -5545.6 47.0568 1062.9 22780.6 1657.15 2525.69 -1972.81 951.811 1244.79 -2120.4 462.464 483.622 327.829 -6537.08 -9955.69 -5270.8 4404.94 19691 -9251.05 -9769.52 2420 19886.9 -1492.55 3016.91 1041.22 10237.7 -7201.18 520.895 5782.93 -5220.9 181.297 -2849.14 1384.34 -1395.19 2648.17 -95.7475 920.987 3963.19 2582.36 -5820.63 406.246 1588.87 -3379.98 1768.69 1705.03 -1400.39 1165.88 245.395 16550.8 2186.82 617.146 2307.23 5591.45 944.196 390.5 -9104.14 -711.581 1978.83 -3409.79 8366.43 -813.908 -2717.86 2666.43 917.035 449.343 -4469.29 1060.28 1319.53 -3000.4 800.315 2472.87 -3679.72 1026.83 1086.03 2155.18 4548.56 5738.75 1265.79 -3243.45 8703.5 2538.01 1506.36 143.747 1664.23 -19444.7 582.096 1464.02 3811.8 445.193 -209.196 2298.37 89.3017 1530.91 894.956 1732.86 3349.05 2321.16 -3078.13 -1855.44 2644.52 55.9835 1672 -8431.66 -892.125 -3303.2 502.283 -4518.13 1717.86 -2440.29 -5059.93 -2377.69 -14.3524 1405.66 254.001 114.566 -208.097 -223.244 338.617 652.269 686.188 1501.16 -56.1544 740.475 1224.06 77.9848 -41.9767 66.8994 -563.264 298.626 717.235 71.5547 277.378 1133.85 239.423 452.089 -502.424 258.444 421.901 -34.1273 466.294 -1063.59 365.971 197.99 -440.796 77.3699 115.594 -87.4738 -888.414 871.797 1076.93 72.3161 187.29 31.991 -175.328 324.667 76.1785 -1.67691 -725.84 -1650.75 895.508 -1032.36 -863.64 736.024 112.626 -392.257 1921.05 -11.5308 313.445 2.17727 -19.8349 -133.945 246.085 107.299 430.921 -172.707 748.661 361.033 826.062 -61.5873 355.277 -2328.97 834.438 -14.7612 2542.94 -395.719 -132.021 -6.14901 34.0421 957.33 10.6662 -246.313 891.453 75.2958 889.425 171.108 353.513 19.7029 -167.023 880.365 561.554 1169.11 2967.99 -5.31798 615.169 314.152 70.0456 -236.335 382.499 -579.043 -62.6448 -580.419 214.54 649.948 889.691 761.013 649.369 -572.976 722.819 381.858 -142.717 401.854 -1060.89 622.542 258.603 -567.98 278.067 -119.102 268.99 -993.164 441.294 863.011 -22.1343 -104.224 -87.8689 -216.121 381.58 606.733 274.952 -796.498 -1773.61 913.885 -1037.6 -849.91 812.539 -44.3868 -392.411 1859.41 -11.1226 447.214 64.8565 -17.2881 9.54859 156.373 158.887 -45.0291 310.395 794.959 445.991 752.159 249.411 470.888 -2402.07 481.607 82.5084 2381.26 -651.068 34.178 39.7077 246.067 963.114 31.3696 395.878 543.176 -196.994 1697.05 911.389 205.687 386.185 -200.616 853.882 247.896 662.943 -6.22676 68.5877 630.896 564.921 -22.6946 -638.981 -20.1673 -507.379 220.399 1763.21 -120.412 235.87 356.742 -362.179 89.0398 -542.869 -74.2095 455.173 -108.013 166.65 -1109.81 196.494 37.8189 -508.982 187.799 637.783 -20.0848 -949.085 760.413 404.609 -30.6787 247.568 -34.4297 -231.407 -12.5199 -53.4529 -279.784 -631.338 -1714.87 397.384 -1032.04 -762.253 300.839 258.939 -312.707 2021.18 -222.538 138.631 54.6922 -20.0133 32.4627 -20.2836 182.772 75.5134 -1015.99 100.54 -48.0248 329.614 -134.581 -156.457 -2151.44 583.027 38.7834 3615.03 -743.66 -78.8749 10.1115 -143.466 251.707 -155.514 -362.925 -77.0494 -75.8955 3359.85 285.284 -514.374 -607.45 -201.117 1022.09 1453.63 1682.12 4644.66 6.39063 1659.4 3177.71 -59.6385 495.298 134.915 -608.044 472.74 2943.98 -386.952 889.717 3237.74 505.95 914.144 -557.319 793.405 994.44 -189.042 1468.18 -890.258 1120.21 444.1 -552.201 285.253 218.827 -86.6001 -952.506 1984.98 2128.03 -102.495 246.382 -91.3123 -113.668 941.498 406.616 370.325 -784.203 -1705.77 2391.91 -886.866 -930.137 2100.44 110.77 -541.569 5045.4 -73.0145 861.735 -80.6878 -97.5415 -269.026 450.754 461.159 791.301 -532.61 2042.04 1018.28 2259.74 -57.559 853.593 -2445.62 2174.61 -144.649 7503.45 -89.1234 -302.952 -50.0359 -62.6422 1559.27 -260.767 -555.621 1381.35 -36.1495 1075.14 346.102 349.827 -251.242 -133.539 498.673 642.545 636.372 1948.69 2.23196 443.041 801.301 65.0903 -48.0263 98.3397 -574.586 106.389 267.043 105.4 366.81 1047.26 283.824 334.591 -515.23 330.609 289.002 15.5592 359.3 -1032.71 352.834 131.994 -485.952 75.0942 116.614 130.179 -905.457 626.812 1044.31 100.078 97.0344 18.3438 -205.122 333.388 -106.408 -153.064 -711.076 -1703.31 792.69 -953.204 -893.574 699.354 -1.42737 -420.303 2100.41 -39.8659 349.753 -96.3229 38.2894 -13.2158 145.86 50.7576 285.512 175.201 632.838 335.981 681.597 18.1113 226.06 -2268.05 705.576 -66.8917 2665.59 -514.181 -53.2032 38.9333 -75.0798 897.778 -133.318 -79.5985 556.005 -72.157 758.932 346.802 -56.2934 105.408 3.24936 847.874 281.048 883.009 1285.83 -10.0129 292.126 269.362 -48.6096 -27.9253 211.558 -71.1114 101.522 540.858 144.386 311.642 555.578 260.731 368.499 60.9261 389.544 444.961 -73.5408 227.285 61.5347 420.334 63.9303 21.8091 137.69 40.3029 117.556 70.8724 266.799 282.649 -16.8554 160.275 35.902 -13.723 242.939 193.361 -222.854 68.5189 22.6395 480.891 73.9812 11.3761 425.826 67.4671 109.73 964.537 -63.2717 515.817 91.6011 -54.7944 4.45651 -27.2988 398.477 16.1274 387.873 508.328 274.026 432.941 150.088 312.655 64.6411 286.277 15.4581 1560.3 17.3111 -16.7521 -53.7921 251.273 144.037 135.274 230.679 169.001 -97.6673 2048.92 1069.59 840.866 102.393 -285.771 1248.03 1058.37 1526.85 3449.52 156.254 -34.8012 853.136 -59.3357 -688.086 -213.854 -438.419 317.015 -2244.75 929.455 531.478 1434.34 592.025 1138.13 -450.214 1092.99 756.932 0.107671 896.673 -1199.63 422.831 337.475 -503.466 103.97 785.621 34.0354 -839.544 942.11 1211.5 -6.47401 377.076 406.603 -173.766 442.914 -370.548 -679.047 -681.791 -1685.12 859.317 -1114.45 -788.782 588.491 434.692 -348.425 3710.05 -212.203 293.514 -50.773 -1.32771 -73.4538 -169.122 -153.621 166.408 -1357.91 510.248 560.395 748.617 205.87 859.756 -2182.36 673.613 -33.3307 4020.1 -728.82 -47.0118 -71.2483 94.6494 659.941 -21.1237 -74.66 420.912 39.5293 1396.87 294.97 51.2091 -50.1315 116.374 888.173 608.297 1159.99 2737.71 43.3381 800.142 832.814 -8.81074 260.775 229.797 125.613 91.6512 465.587 1.95761 746.385 1401.85 632.231 433.479 94.6393 520.585 508.178 -170.721 390.957 -209.248 684.787 110.103 117.486 85.8148 42.8559 226.542 -199.8 617.821 830.251 26.4176 51.5136 -4.73384 74.1022 442.602 383.893 292.302 -239.828 -324.351 946.167 -177.091 -159.822 961.46 109.133 -101.521 2495.54 -92.4701 451.306 24.5228 41.3122 -43.6183 106.586 308.973 123.346 417.625 859.848 471.55 951.939 96.3082 231.283 -626.06 659.616 -125.34 3056.63 59.6724 -104.266 11.26 45.3347 824.354 -24.194 109.033 494.075 -7.28754 -407.824 -74.4466 264.596 195.059 -315.084 621.905 11.5047 621.703 1608.76 -46.1693 -159.566 -378.616 44.5491 -791.189 372.55 -655.32 -119.057 121.394 179.458 256.951 95.5133 521.821 152.051 -631.553 401.622 140.045 -52.8236 247.509 -1146.68 485.092 103.031 -548.536 315.412 -340.997 359.315 -1053.19 -286.887 746.837 25.4408 68.5217 16.5242 -392.742 153.634 542.695 390.701 -828.583 -1752.18 251.113 -1205.04 -928.198 144.162 -56.7399 -472.563 -304.88 -107.962 427.64 265.891 -66.9393 117.824 -6.31874 339.116 -168.119 336.674 701.013 213.581 188.525 236.751 451.727 -2361.43 -129.91 137.461 496.695 -941.984 142.465 66.772 355.507 847.9 49.4349 672.474 232.878 264.13 29.4763 -939.179 287.067 -223.432 -189.754 69.2626 512.656 492.192 6885.87 48.2947 -438.358 18.2846 49.6479 -490.916 717.12 -514.902 -169.169 -3311.63 506.765 1274.07 1842.1 1591.38 838.51 -467.559 1790.78 76.9624 15.5501 417.736 -1139.1 1072.25 333.14 -445.851 -231.471 -614.822 761.177 -862.536 -177.433 1649.17 -18.6146 -267.86 121.272 -259.371 854.999 -426.774 1198.14 -650.808 -1609.96 852.162 -1124.67 -777.135 687.81 -69.9434 -319.575 5491.09 -328.078 -156.591 -333.603 -8.28988 -10.5146 -272.386 -112.763 -245.15 564.686 1220.35 618.738 946.063 741.249 865.957 -2140.37 246.768 -40.1295 4322.92 -780.143 34.9732 -80.1843 264.194 1314.18 -146.829 644.705 542.576 110.325 672.272 75.1166 289.524 8.58619 -73.3928 386.685 362.452 413.481 1476.69 21.5055 415.996 363.586 24.7932 -254.292 220.608 -499.987 88.4807 267.228 42.8634 374.201 835.352 474.443 181.754 -479.312 236.932 249.957 74.2101 176.573 -1161.68 381.258 134.198 -422.003 103.219 42.6343 219.99 -921.444 288.688 872.951 13.4542 227.125 40.5161 -159.345 307.481 244.374 413.501 -723.13 -1660.05 577.574 -1039.23 -844.687 606.286 95.4444 -366.034 1623.12 -57.5318 63.4512 -50.8265 3.19771 -72.4557 106.748 52.3678 158.82 -47.0445 573.082 290.142 505.895 -18.3592 96.3848 -2164.59 361.047 60.3753 1639.36 -455.182 -37.3728 -0.564638 4.89099 981.219 -95.9918 13.8852 644.117 -129.051 1211.2 -180.301 235.73 -159.01 -2.11538 372.739 -58.5302 479.589 2804.56 59.2726 -188.052 935.19 -30.2691 -485.162 212.024 -531.113 -127.455 -1243.69 243.173 448.19 896.045 38.858 353.287 -453.825 1288.64 434.566 24.2372 672.717 -1055.31 562.159 642.016 -494.369 41.1274 -147.776 841.411 -751.89 109.087 1221.72 -28.512 -5.20115 637.135 -228.702 110.695 -616.957 -1677.36 -790.629 -1627.81 779.566 -960.188 -808.763 365.29 15.4311 -537.999 1174.41 -164.262 536.376 -169.012 30.4824 -34.6775 -180.143 422.221 225.647 505.405 531.45 227.394 521.092 157.02 993.357 -2239.53 335.17 -50.2893 2071.97 -657.299 42.2718 -83.5208 551.822 991.26 115.289 149.777 345.457 424.189 1397.59 278.74 1093.71 -97.4544 -223.792 2016.31 1021.49 1748.08 9511.74 153.216 -624.504 -257.308 -180.598 -452.465 55.7536 -444.134 -35.7055 2952.54 -705.905 1290.34 2123.25 1575.37 -22.2111 -470.402 912.281 810.374 -141.686 591.465 -1162.95 1948.19 128.428 -458.245 -145.864 -345.553 293.635 -819.731 85.277 2151.02 1.85166 774.614 70.4657 -121.047 845.385 -614.434 -875.113 -837.479 -1541.45 1405.52 -988.362 -754.812 1517.87 236.31 -508.88 6115.1 -269.801 95.8757 -287.633 -27.6242 -66.5249 -478.777 295.31 -255.335 1848.11 1699.08 853.506 613.763 556.886 -247.961 -2187.25 282.388 -126.208 7687.52 -637.243 -36.4393 -42.3319 -354.836 1337.18 -541.137 380.294 75.8472 -93.1991 857.052 451.497 1220.73 -1.00697 -278.071 1150.46 746.563 1323.72 5575.26 -15.7175 -562.345 -512.334 158.794 -544.203 -195.236 -468.946 -24.7886 -1221.02 400.588 522.104 1020.38 1258.44 837.868 -426.134 849.215 279.799 -14.0448 421.266 -1104.09 968.752 137.848 -538.123 -109.048 81.8739 -17.9974 -832.826 59.5554 1440.48 22.5004 476.983 130.374 -280.556 636.86 -29.6026 -908.241 -653.211 -1663.53 525.946 -1037.06 -800.444 607.133 114.745 -426.237 1412.86 -146.898 259.447 -25.8361 -18.9836 37.4879 -0.339673 -38.4451 103.129 1633.95 810.91 639.583 332.607 273.094 516.188 -2223.65 -217.371 54.0322 1072.04 -683.34 1.53625 -50.3773 485.721 1242.89 10.0463 720.412 410.883 169.463 487.213 219.466 142.267 39.0655 -34.6246 611.659 261.483 665.647 1564.43 -64.9401 798.688 1.44692 -94.2739 -22.0931 43.4719 -473.178 -16.9756 -1190.58 -30.6529 656.096 299.182 203.311 99.9035 -504.775 76.0404 304.769 -143.125 -710.704 -1155.94 312.254 -49.3931 -430.972 144.015 -99.2903 605.505 -845.724 404.533 246.344 2.69929 27.1198 62.5095 -238.72 112.143 -91.8672 -597.83 -648.733 -1664.63 862.179 -1028.3 -814.939 955.798 -25.8378 -389.756 2240.32 25.8334 206.956 -197.584 -26.9065 -31.1789 -326.831 145.125 -90.6127 -12.4256 558.021 143.383 530.88 -81.9692 -152.839 -2174.22 364.205 3.05932 2075.63 -781.587 77.3602 -62.5479 -97.3442 885.529 115.473 221.621 268.682 -200.344 1265.84 479.203 -35.6035 115.775 -62.9704 1370.34 565.056 1565.97 2795.61 -208.397 782.094 760.075 76.6507 -100.838 447.593 -267.581 9.63509 546.743 213.511 631.354 1150.97 485.961 792.279 227.086 771.133 625.201 -170.259 659.615 -483.568 565.58 273.713 130.381 357.386 -60.6366 337.212 -582.169 686.838 737.591 -8.59426 -32.6264 17.7684 -149.555 343.668 726.395 98.016 -477.824 -896.379 1011.47 -525.359 -636.226 894.037 -102.313 -361.519 2196.42 -74.0272 779.804 160.538 -16.2479 -11.9921 -7.66208 409.111 10.3794 252.369 843.466 399.335 1070.25 -21.8939 625.958 -1338.99 637.519 136.512 3083.71 -231.516 -6.98418 65.0801 556.535 870.789 156.702 347.888 387.105 126.735 1412.86 931.196 190.457 76.3579 -244.318 1712.42 792.618 1623.07 4055.96 -17.4149 489.345 89.5868 24.5396 -491.54 -15.1971 -448.401 16.5148 2414.73 -79.2509 545.165 739.91 117.709 424.792 -531.354 43.0524 642.435 -218.348 -126.898 -1231.87 495.114 15.4755 -538.134 -102.994 152.172 21.5572 -920.714 703.369 662.437 -55.1888 194.191 -65.5716 -178.744 296.73 -115.048 -346.063 -674.109 -1632.73 740.424 -1069.81 -827.18 852.069 77.6331 -334.811 1900.2 15.727 888.916 -125.753 -39.212 55.5865 -117.902 668.789 -1.00111 1475.4 714.951 141.793 592.609 33.2321 -72.3805 -2154.47 183.306 -4.55366 4563.72 -735.296 62.881 -51.4398 -188.083 494.618 -203.111 196.723 -159.015 -21.7728 556.652 30.9179 -45.3047 -38.2066 -132.79 288.958 114.752 329.635 604.383 -28.2363 623.246 603.86 -80.5606 -314.713 294.897 -586.077 97.81 1601.85 -315.608 374.688 585.429 87.7031 -213.495 -514.833 -32.4467 208.361 -13.6178 -40.4731 -978.376 287.609 80.8781 -525.598 -32.1194 -143.629 237.149 -882.66 300.286 799.474 32.8614 177.095 44.875 -95.5389 177.656 164.165 146.918 -765.483 -1692.68 551.823 -952.123 -891.899 663.266 5.86104 -368.943 854.266 -2.19937 132.178 -27.6274 -38.0817 55.409 131.172 201.86 147.515 -158.825 602.609 224.894 581.916 -0.299524 -159.927 -2249.03 459.337 13.4773 1390.54 -404.687 -91.2053 -54.8779 23.3526 987.289 -9.11695 35.0484 477.138 -45.0745 1224.77 224.962 253.587 -149.789 -145.207 610.443 708.783 854.717 2417.02 -134.038 702.772 889.473 37.113 -189.81 314.675 -526.455 44.236 303.764 117.364 561.72 1340.1 398.47 389.799 -573.745 468.709 334.951 -3.23694 403.403 -1095.55 409.164 198.045 -577.08 120.948 135.326 159.024 -922.749 652.106 1183.48 68.2154 149.12 9.76826 -144.58 389.548 244.523 373.41 -665.405 -1666.38 770.791 -996.158 -895.637 724.995 -76.4937 -434.986 2313.55 -192.116 221.332 -15.5996 24.3657 -108.859 143.403 188.47 259.294 39.0031 846.369 419.924 964.834 -84.2862 232.281 -2271.03 677.046 -48.7378 2924.87 -453.032 -175.54 -5.99609 27.4452 1128.04 -181.037 -10.2249 669.129 85.7716 1094.18 211.731 34.1395 378.856 -199.304 1037.91 297.331 989.554 1254.12 -54.6568 575.291 259.502 270.587 -720.271 143.776 -562.094 191.288 753.443 74.8159 286.203 191.566 382.866 451.212 -617.463 330.521 264.996 -127.114 441.612 -1215.36 529.258 329.707 -573.458 495.866 156.928 196.938 -954.845 500.76 345.303 34.1023 -17.4196 -33.2904 -350.232 118.081 739.448 -324.924 -801.935 -1677.35 756.437 -1162.24 -920.683 604.802 69.4588 -445.645 1019.3 -18.7841 490.966 489.899 -53.5667 148.563 218.544 192.094 -76.769 -1076.48 427.674 227.763 328.705 96.9808 405.957 -2281.71 399.48 1.05554 2336.5 -817.942 135.549 -34.4059 432.058 546.162 304.224 296.316 34.9857 50.7041 1198.07 294.504 -136.985 -14.5631 259.754 896.055 399.974 979.584 2516.6 106.635 589.35 645.263 -91.7582 439.837 28.4263 175.747 86.2065 405.147 -135.955 589.335 1116.59 477.406 318.23 77.4481 463.099 415.812 -156.485 247.482 233.045 602.633 100.527 117.327 133.257 139.449 283.516 160.428 604.435 528.275 -57.8469 169.039 -13.4027 64.3627 401.444 179.211 51.2758 192.199 222.043 911.653 145.393 147.563 902.926 126.37 73.4832 2310.8 -161.366 329.617 -151.125 -18.0079 -104.468 6.83802 286.082 79.7258 487.293 801.775 337.766 664.492 98.5462 131.599 303.991 633.948 -148.026 3011.96 311.196 -63.9491 -64.7831 -153.208 299.2 7.31097 45.242 258.596 -238.788 1494.66 598.841 2164.58 -19.475 -235.227 2168.63 1819.81 2609.23 12447.1 -211.925 -1564.83 -515.78 -29.9302 -529.559 -324.069 -488.544 -357.311 -2523.65 1022.99 900.987 2258.04 2192.56 1585.53 -564.211 2078.52 673.486 18.2282 1601.07 -1137.86 1690.64 522.407 -484.969 -107.191 -62.3942 184.115 -798.991 -57.5942 2346.79 -2.5231 284.313 476.591 -197.862 1324.24 -469.858 -454.643 -735.957 -1682.84 1177.54 -1088.03 -835.633 1017.17 -13.8811 -436.001 3361.76 -125.616 656.67 -50.6357 9.37039 -28.2511 -209.554 96.1523 -63.0681 3139.04 1476.94 1014.78 729.559 823.501 1239.77 -2200.83 -290.737 33.7914 4215.65 -658.458 79.1824 -80.2915 522.822 1348.25 -22.0609 871.194 466.787 -468.294 2650.82 855.133 1570.64 -350.707 -16.7571 1710.93 2235.99 2488.39 9203.24 -172.683 275.555 1024.56 30.3023 510.204 -124.269 -463.506 -45.9338 -3088.75 1172.16 979.903 2778.96 1701.49 1923.87 -508.341 1579.42 608.285 14.4872 1608.53 -941.591 974.174 445.686 -525.148 26.5851 119.941 -57.9774 -847.255 1265.09 1838.27 -86.8277 -153.646 251.775 -191.068 1229.3 -52.268 439.123 -768.144 -1644.21 1714.75 -959.501 -848.446 1444.69 107.949 -422.123 4331 55.9138 738.774 -282.011 25.4873 -97.2485 182.556 31.3363 236.913 1895.29 1307.3 973.333 1633.55 442.103 1374.46 -2332.91 735.725 -47.008 4887.43 -252.815 -31.4344 -94.3527 213.466 1319.53 -34.6177 327.119 1136.02 -225.722 1371.8 455.879 14.8543 51.3817 -97.8906 1285.16 628.907 1508.01 2802.75 -246.554 910.368 839.923 -7.82461 14.6016 494.881 -245.414 -120.984 470.261 146.255 787.289 1312.89 545.357 741.903 99.6182 832.925 607.712 -153.38 605.669 -427.441 612.381 243.176 156.087 357.485 -115.082 382.519 -648.637 737.149 889.756 -63.2408 15.4801 -70.6494 -90.7835 404.425 780.959 255.494 -553.737 -913.274 1066.62 -489.676 -595.496 1032.93 -115.712 -279.275 2303.28 -140.031 776.799 147.066 -140.093 41.098 1.15885 438.912 38.7624 337.818 1035.19 409.554 1160.99 20.9172 532.535 -1399.65 624.874 110.965 3070.23 -163.062 50.4159 23.2376 474.803 1010.22 107.894 335.484 499.311 3.9219 509.237 247.758 404.873 27.3847 -270.794 585.885 263.039 548.415 1159.01 37.4226 88.345 158.595 30.1003 -460.815 64.6467 -471.752 19.8268 514.529 -95.4049 355.925 472.852 317.357 126.723 -509.629 221.496 282.409 -87.5355 -7.25982 -1213.27 316.973 17.0963 -421.982 -36.2292 -21.63 124.336 -844.672 145.216 764.76 13.5454 218.733 -29.9048 -205.746 126.111 -110.063 -442.786 -741.885 -1649.28 384.335 -1040.5 -821.128 370.299 21.7126 -413.04 1063.16 -18.1648 178.695 -74.4142 27.8331 -11.7584 -71.9956 100.731 25.5859 231.586 430.881 206.291 187.915 59.235 -32.2283 -2263.19 187.619 24.8629 991.963 -678.137 58.1987 72.1106 -44.1714 906.845 99.0884 113.49 485.937 561.26 504.395 -93.0114 156.776 73.8026 -318.097 379.409 -23.728 551.342 2270.73 7.76565 250.526 600.225 3.4718 -297.839 256.338 -523.316 -7.791 424.19 -124.205 566.065 1080.85 630.425 462.276 -562.847 840.569 273.3 -83.6641 709.921 -1109.76 663.366 358.143 -521.165 358.787 274.146 406.938 -930.368 143.29 1015.78 -19.6629 54.0808 30.9859 -298.302 446.335 508.074 1583.32 -764.503 -1752.15 491.694 -1129.64 -822.911 470.135 -129.238 -333.565 1912.46 -67.5447 263.429 94.2162 23.6842 -34.529 61.8372 235.539 126.555 -348.065 694.615 378.036 568.311 168.525 448.806 -2307.21 490.484 45.5328 2905.92 -675.882 -95.4339 8.62541 17.4302 883.013 82.6542 99.3211 489.871 -93.1024 707.984 368.474 135.009 126.595 -385.338 828.978 292.656 905.997 1672.71 -128.684 214.425 617.509 -109.118 -724.763 293.631 -564.457 -173.782 549.694 93.6192 279.17 799.74 41.0398 262.746 -641.864 470.035 537.262 -20.8554 676.409 -1213.21 277.244 159.034 -627.705 148.334 233.164 186.89 -934.339 171.97 856.795 4.85657 -123.94 97.0155 -246.526 329.035 -7.21834 1195.06 -779.792 -1780.89 304.613 -1130.92 -828.649 232.615 -116.219 -448.568 603.38 -22.4788 728.164 185.54 26.916 4.37053 -51.3417 677.622 -66.8181 -82.6987 576.249 116.568 570.029 -18.3313 324.451 -2292.96 403.289 109.445 3211.34 -777.171 -52.587 -18.763 -49.5467 571.069 -124.068 25.8111 97.9162 -70.0629 1340.74 284.544 -195.274 43.8907 156.037 1033.83 514.024 1171.79 2686.35 -31.8898 707.417 712.662 18.5329 380.943 248.719 45.3583 -44.6178 470.612 -4.66635 667.327 1213.51 563.094 473.14 85.9448 577.25 493.788 -178.111 346.657 245.286 662.965 202.526 94.7137 214.373 -11.5978 279.383 204.071 657.329 522.849 23.6802 -14.7319 -15.2981 30.5908 324.94 319.748 148.985 182.686 235.051 981.893 253.249 170.233 893.405 -51.2623 98.747 2343.25 -56.9265 486.865 -94.9497 -50.7773 -0.376002 -58.4942 299.615 65.0141 456.917 878.114 417.47 871.255 46.4318 333.937 395.687 553.887 -10.7197 3101.04 358.738 -36.7461 -40.7583 113.741 284.59 13.5567 154.422 160.83 168.542 510.668 288.637 153.016 843.015 -178.195 1620.81 60.3271 1631.13 7027.96 -99.6058 -607.796 -847.225 -181.17 -1439.41 -447.019 -531.827 -146.299 275.142 -31.8827 483.818 754.19 1313.6 623.504 -581.984 964.323 206.71 46.8991 950.902 -1222.06 1494.55 199.121 -607.922 805.342 503.644 506.953 -983.538 -385.442 1202.32 -21.0426 -119.367 33.7135 -330.571 758.352 1565.72 1842.4 -691.518 -1643.08 298.79 -1061.52 -916.352 535.664 -126.398 -457.892 -261.575 15.0144 887.807 809.473 -48.2325 -22.2714 332.343 614.926 -63.2734 -460.078 961.168 487.26 68.8047 358.477 413.919 -2266.05 -376.486 11.4041 3570.49 -1124.74 125.668 -74.1205 204.341 900.956 -97.017 823.843 59.6202 -90.7835 3201.66 -357.035 -729.921 345.326 1765.28 1416.88 185.34 1328.1 10651.4 -110.779 2996.49 411.096 -363.937 2778.56 886.453 -13.3698 -248.578 -4614.56 -1007.63 3005.44 2419.98 2722.72 -92.4027 -204.674 2425.94 237.65 -549.685 -546.848 140.874 2664.67 1277.61 -275.308 1396.95 -403.711 4024.37 -8.82574 1504.35 -128.638 -34.8564 -651.76 -170.79 -177.832 117.789 3577.87 -1318.55 -104.417 -121.645 4873.41 111.45 -61.8242 4470.04 -101.824 -37.3728 13338.8 -422.964 -810.883 -394.018 2.31211 -123.932 -359.025 121.596 -743.244 -2133.42 1687.16 765.182 1743.09 30.122 -923.005 -191.3 1764.15 -108.104 10567.8 613.061 604.055 -49.2798 -431.009 1481.54 -261.829 589.092 301.179 5.68029 1256.08 276.032 187.289 13.7838 -66.3631 880.745 664.446 975.335 2604.14 -76.6103 741.401 808.036 -113.425 -174.684 202.43 -535.415 84.8718 383.691 -64.498 708.385 1316.78 563.286 428.164 -492.438 375.022 474.286 -117.365 179.65 -1028.31 588.311 142.143 -478.375 45.6029 88.4125 207.608 -867.434 745.489 1111.34 -26.6243 98.573 -57.2488 -117.728 438.081 232.87 323.15 -676.861 -1648.27 963.193 -1041.68 -861.524 988.855 59.8247 -328.559 2520.12 -61.9192 300.505 -102.42 30.7545 -30.2857 -2.37129 209.891 120.034 271.951 816.63 474.104 869.267 -6.03859 46.7209 -2309.84 667.088 -43.75 3013.63 -464.878 -88.9889 -8.64225 -95.5828 1121.67 -128.917 -10.2774 672.863 -64.5854 1260.84 327.213 -525.048 164.057 -54.5733 806.591 209.473 833.503 -38.7621 -0.806157 1202.37 812.274 107.46 -6.40041 621.779 -434.677 149.538 1508.98 -19.8712 632.487 693.69 -8.04581 251.6 -470.947 327.457 592.171 -134.272 340.658 -341.821 339.059 264.239 -534.172 344.438 52.1182 339.044 -362.773 803.956 -12.2565 -16.0331 -37.1047 -38.0598 -132.968 14.4321 727.694 -96.963 -397.586 -940.186 916.524 -364.534 -382.434 723.137 -18.8573 -389.551 3113.36 -84.5985 361.035 153.038 -12.7896 29.6105 -20.1422 375.2 -83.381 -927.434 364.851 124.328 856.735 -37.6265 201.5 -1102.89 834.433 184.539 3629.87 -241.174 97.3454 73.3446 282.094 48.6363 -16.81 17.0967 -130.193 23.2445 1206.77 104.634 -221.107 -70.1319 244.243 806.389 41.5936 506.588 1525.25 -21.9365 910.88 619.163 -19.7859 143.659 94.6832 -551.029 64.0056 874.441 -751.626 458.619 434.197 62.7554 -583.019 -492.003 78.1752 377.882 -172.103 -222.447 -960.653 754.563 298.25 -485.892 346.345 39.9626 935.477 -887.662 501.894 654.461 10.9457 46.5209 34.3127 -146.727 22.7188 362.843 -1109.6 -701.892 -1665.7 1346.26 -1036.84 -813.527 1193.7 -8.79266 -374.044 1909.9 67.3157 181.749 -81.3868 21.0363 67.9011 -33.3391 328.053 174.49 -716.445 652.117 77.3232 456.012 -210.166 -484.355 -2240.12 641.199 10.7317 3017.54 -332.708 24.347 -15.4296 -311.803 957.614 20.6131 -174.733 453.265 130.098 1151.02 328.603 -99.6033 156.698 124.252 1112.38 408.693 1156.2 2526.55 -112.136 584.497 369.974 68.2749 158.907 321.87 101.078 -20.6789 87.0465 131.086 524.426 766.381 569.423 687.391 7.08129 629.37 424.354 -113.371 557.557 275.103 669.052 309.384 126.346 377.275 62.494 279.035 25.1101 468.631 84.1531 20.0865 -2.29441 -36.2204 80.5826 363.78 538.877 246.762 267.392 362.788 865.588 220.948 53.7698 766.104 -27.3991 284.393 2194.08 -89.0565 481.3 139.301 -68.636 31.0977 107.306 296.576 -58.4274 133.805 606.403 337.286 733.158 105.196 482.47 544.749 388.03 56.3601 2902.63 164.187 108.278 26.2672 292.123 -25.0495 66.1405 356.488 7.34064 188.607 625.163 365.257 -109.011 83.6925 -282.135 564.473 -68.7669 175.458 -101.993 -17.0058 425.573 230.521 -51.6691 -481.826 190.201 -584.53 92.3186 2984 -399.565 262.596 -28.8861 -293.19 -448.924 -496.353 -248.751 222.427 60.8364 -49.8094 -1101.06 280.5 136.959 -556.876 178.596 74.4824 191.351 -899.745 200.403 460.562 53.1522 211.58 34.0093 -249.717 -46.812 -38.9556 0.897829 -743.88 -1685.39 355.689 -1055.84 -899.839 317.109 -23.2604 -367.216 983.729 24.4002 221.963 85.8074 53.85 7.9656 -4.72862 397.901 -88.3667 -303.356 276.897 -110.564 103.514 -78.457 -322.453 -2187.44 334.939 42.9858 2584.84 -689.961 -17.3502 95.1294 -177.383 449.187 -93.9398 -164.283 -9.95284 260.269 1171.48 530.113 270.125 -62.0656 -250.314 845.512 253.021 925.219 2809.42 -0.978782 138.358 606.138 31.9421 -378.087 -31.9027 -441.761 -90.5962 516.041 113.209 158.826 876.301 71.5526 520.665 -506.455 338.451 502.675 92.6614 736.46 -1095 553.36 260.221 -458.758 274.108 571.042 58.9323 -960.118 464.525 889.905 8.11902 56.6541 26.948 -226.351 512.919 -212.345 1006.62 -737.652 -1702.76 468.731 -1072.39 -769.219 409.85 43.1285 -316.1 667.711 59.7007 782.325 -15.6709 4.49454 -30.4143 21.4953 549.808 150.429 259.708 547.625 215.794 434.524 -49.9323 351.756 -2168.77 384.327 31.3217 3840.22 -681.383 -146.327 26.8312 -62.7198 532.083 -30.8856 -55.9004 294.818 -3.99354 1244.31 721.613 447.219 -18.6366 -206.315 1759.16 861.432 1972.05 4103.63 -167.999 664.84 -0.6439 -126.409 -538.368 -88.7049 -443.993 -44.3986 -305.502 508.45 798.68 1053.68 439.412 1020.43 -539.229 507.977 754.014 -64.3831 -116.328 -1207.48 373.554 2.09832 -494.669 -6.91981 226.65 1.54005 -955.042 654.848 585.954 -48.4232 7.42285 9.8603 -227.614 524.85 -11.9026 300.781 -670.462 -1650.34 650.912 -1051.18 -814.253 784.794 -71.1393 -364.897 1628.58 11.0859 1008.47 -102.882 7.93598 70.7766 -115.708 653.575 -126.002 1479.07 726.612 255.908 880.318 33.4556 268.096 -2217.73 111.355 -34.548 3101.49 -775.296 71.5629 -38.4523 189.838 698.122 61.3403 629.898 86.3747 -89.0669 1353.65 309.586 -269.875 20.7756 237.757 1011.38 583.868 1212.99 2787.43 13.148 748.578 788.853 -33.3242 460.465 247.419 155.146 -61.0206 369.108 -13.5912 675.95 1349.26 581.508 428.493 43.9266 511.243 422.775 -135.904 341.264 288.768 670.007 113.197 65.152 110.206 -46.6466 245.014 217.289 587.546 582.313 -1.88331 61.3854 -60.0561 89.9547 415.4 387.463 242.101 234.315 321.31 1022.98 227.417 151.51 983.709 2.32315 108.206 2439.67 -98.9519 370.521 -11.207 -57.0261 -39.0397 123.368 295.984 116.542 418.051 878.971 387.445 909.446 16.8973 205.119 382.125 649.936 -104.283 3134.38 370.82 -74.1694 -32.2134 89.7868 371.502 -87.2499 196.558 269.275 -151.478 1478.03 255.403 -117.836 -77.1144 185.689 992.198 783.028 1184 2841.72 -148.705 949.251 951.072 -45.4203 348.829 253.447 -48.2049 -23.4837 519.319 30.0208 722.87 1525.18 537.646 543.896 85.0376 516.193 499.461 -179.589 342.767 56.5924 604.619 85.2099 27.8791 135.959 29.8428 307.166 -11.3249 858.733 758.45 -7.29721 10.2922 -28.3693 159.097 396.63 377.196 404.917 -0.616984 151.428 991.727 16.7396 -110.425 1071.46 -107.619 152.084 2419.55 -112.102 354.087 -101.233 -29.1395 -83.8194 101.901 282.712 220.517 234.691 869.59 454.721 1068.76 -140.087 186.007 -61.5094 754.785 -54.1293 3027.57 339.165 -173.29 -60.793 99.7754 644.513 -42.1592 165.884 395.358 8.17785 469.953 102.044 322.846 124.374 -295.209 244.274 260.975 220.623 850.549 69.9898 183.544 232.235 95.6541 -537.197 -18.7833 -471.486 135.363 -150.553 115.464 84.1629 161.212 189.944 255.355 -505.187 181.085 46.0513 45.3221 275.966 -1247.68 170.432 209.447 -560.012 196.505 86.3203 130.669 -895.483 235.339 575.958 109.26 78.1152 -29.8199 -273.544 85.8722 286.992 -15.3154 -763.126 -1626.42 321.245 -1077.04 -815.916 158.237 98.3092 -424.461 106.816 137.777 238.524 232.353 -4.83107 57.3708 200.033 -6.98805 141.112 -291.024 141.739 55.5349 141.484 53.857 282.104 -2271.5 176.824 2.10988 659.086 -720.478 58.4255 112.922 144.669 723.611 156.509 138.587 327.674 18.9592 1371.49 202.297 -4.04017 -0.0388062 100.245 910.539 518.03 1075.37 2698.3 4.93923 645.097 787.239 -39.8784 306.524 136.365 -101.675 -14.1282 431.38 -73.6508 736.784 1312.01 597.131 410.437 -60.3758 457.029 447.156 -157.558 289.046 -85.8532 681.095 198.559 -41.7914 180.636 70.6157 258.291 -109.959 605.593 745.415 48.0365 83.5364 -58.2574 17.0762 386.531 218.462 188.164 -92.7125 -239.21 910.772 -118.138 -155.452 960.302 16.8977 27.3244 2404.98 -122.659 366.447 -21.3804 -22.4929 -59.9694 -17.8272 304.908 130.794 350.373 816.556 400.344 808.023 23.0115 179.918 -340.599 692.231 -111.557 3024.85 108.737 -19.8567 6.01353 22.1047 530.657 16.2061 75.733 308.776 61.0587 1339.05 204.784 -162.625 23.4221 211.831 922.716 573.958 1046.1 2682.42 1.1657 681.058 698.818 -0.606614 363.781 192.631 142.957 92.1009 395.181 -80.9947 694.672 1266.59 565.685 458.441 31.1954 475.478 495.905 -76.3009 272.285 115.157 607.261 197.694 51.4008 152.365 101.734 301.335 129.213 646.313 621.593 -43.9995 113.63 15.7811 117.648 419.01 248.635 264.433 134.886 110.938 1038.36 74.1291 97.164 893.337 90.0863 96.1387 2382.72 -134.68 350.924 -108.165 14.6433 -40.3778 21.6794 173.054 148.561 411.503 788.572 411.969 778.846 61.3032 194.93 201.981 598.407 -86.1102 3111.14 257.872 17.5055 16.2982 42.8136 412.191 23.7107 38.7105 292.344 56.6082 108.25 86.6165 293.734 89.2525 -100.316 204.218 2.67691 138.478 449.331 -92.5517 293.212 -13.775 -55.675 -312.908 52.9039 -537.363 33.0706 -298.475 57.6635 320.19 10.6793 62.566 -24.1193 -539.509 36.7467 120.004 41.6772 -187.392 -1176.45 152.471 90.1929 -460.859 158.556 4.63596 411.791 -932.515 68.4659 442.332 21.8932 47.9438 104.43 -277.77 49.3076 119.602 -179.543 -673.26 -1693.28 382.472 -1090.76 -878.176 401.632 41.1785 -355.328 846.811 30.4108 -2.19792 71.6712 85.6894 47.7776 -159.88 157.372 -127.876 -200.468 276.326 54.7522 166.942 24.3013 -193.143 -2179.12 179.369 35.549 809.131 -710.394 59.2301 43.3711 -23.8802 777.64 -0.036304 90.3518 276.051 -246.102 1070.66 267.605 325.387 16.9388 -313.697 1195.15 624.5 1568.93 3810.85 -275.061 500.077 570.197 64.9403 -279.081 524.66 -715.247 -289.843 65.3046 473.197 797.521 1430.08 766.548 956.272 -584.145 1169.42 594.372 -132.92 758.875 -919.887 660.752 237.445 -569.381 293.777 -251.244 305.641 -998.094 516.222 1098.83 3.04424 -117.387 -15.1446 -286.802 514.388 737.289 152.038 -907.145 -1698.39 885.498 -954.896 -1013.72 905.916 -158.256 -652.757 2284.92 -142.681 839.797 195.876 -124.503 27.0231 -22.9419 478.476 46.1106 653.786 962.8 629.834 1170.82 84.7827 896.761 -2397.78 401.339 296.321 2560.17 -480.308 -26.7645 36.2995 735.233 1228.69 22.4111 588.645 484.774 -109.105 1491.18 367.462 -378.429 35.0352 196.163 1077.1 689.951 1449.23 2964.78 -86.0958 902.024 825.401 140.278 542.842 433.163 188.08 20.7216 484.196 207.402 689.909 1281.06 637.164 648.658 92.8556 747.072 534.57 -61.1623 556.057 519.032 659.572 248.602 83.4228 350.012 -32.2503 323.601 216.672 721.388 414.266 62.8273 -40.5627 -89.0731 111.584 347.847 687.501 308.951 308.704 524.472 1071.89 341.947 157.493 1033.82 -64.3528 179.235 2409.82 -40.3962 587.268 163.252 18.8241 -1.85443 110.178 257.296 203.416 410.519 881.885 496.701 1170.43 63.8525 549.585 693.612 685.524 -6.85673 3168.65 418.809 -59.2145 40.5035 446.799 197.872 92.5163 252.961 165.126 -274.479 1101.07 53.907 146.53 6.10287 -33.0422 747.323 -44.875 744.65 2278.02 -56.206 40.9391 746.418 -71.4632 -451.729 356.521 -509.878 -124.283 -1288.33 298.035 424.8 523.542 -105.009 383.905 -536.51 1228.63 438.214 -99.5217 718.038 -1063.8 425.693 598.299 -480.196 177.178 -291.109 951.402 -935.494 235.352 894.745 -156.829 -269.608 590.029 -265.655 13.9193 -60.8222 -1678.86 -753.02 -1740.12 913.838 -945.213 -867.273 551.199 -182.553 -453.465 1193.08 -78.7587 710.881 32.6779 -92.2667 25.236 -275.824 396.121 24.2065 112.38 590.389 95.4036 583.699 88.0357 980.95 -2294.48 305.113 146.318 1874.13 -764.644 88.5515 -48.9688 698.229 889.191 219.974 417.287 266.063 -76.8414 1852.5 803.89 164.8 -62.3546 5.48757 1715.39 1340.96 2225.62 4181.68 -89.6807 1044.23 979.417 -109.894 -335.161 -10.931 -507.532 73.6172 -1895.72 1065.27 851.745 1881.36 477.222 1480.36 -539.126 739.829 902.58 79.8498 249.595 -1006.47 220.041 2.89103 -469.561 25.3279 621.248 -49.3847 -930.068 1241.14 916.93 13.9985 -226.655 -1.89873 -176.198 842.709 -71.7569 1096.72 -656.148 -1678.62 934.455 -1045.19 -792.687 879.46 -80.2332 -375.675 2673.42 125.457 1106.46 -90.0462 39.8464 -161.956 -119.621 517.241 40.0222 958.409 875.984 477.629 1429.96 -109.189 602.029 -2214.12 650.962 -70.7998 4245.78 -668.445 -75.2237 -49.5536 13.0175 750.268 -6.128 274.665 454.506 -277.232 3495.25 1940.29 -230.028 -203.48 -31.9068 4794.19 2337.85 5291.41 13105.2 -10.4234 1981.07 130.364 55.6314 -525.384 -483.991 -504.306 -53.5549 3269.18 105.687 1534.94 2648.47 911.574 1867.28 -449.181 588.253 1782.13 -71.7264 -323.175 -1105.12 1527.87 -287.576 -446.765 -599.541 206.93 -250.049 -870.444 2005.86 960.883 -213.747 -288.863 -136.273 -134.083 1697.29 -308.665 348.157 -652.834 -1705.39 2381.52 -1016.78 -885.423 2706.28 -389.425 -363.072 3311.2 573.924 3008.88 -365.73 -159.205 -294.959 -233.24 1664.12 -40.4492 5694.98 2044.65 588.543 2264.79 -123.084 124.001 -2151.41 326.013 -288.292 8653.06 -549.807 -191.461 -235.502 182.595 1125.86 309.844 1400.79 228.043 -27.0956 976.074 241.902 211.107 -156.965 -302.029 879.73 383.585 883.393 1110.84 -31.9342 505.568 1061.1 -162.636 -293.203 328.544 -550.107 -46.5955 -612.246 240.173 445.927 1111.5 -31.96 348.76 -546.362 350.882 688.081 -163.674 522.284 -1238.94 68.6467 157.985 -448.748 101.088 70.8108 152.061 -885.406 488.163 795.54 0.331157 -240.162 82.4513 -228.212 265.812 -473.553 1749.77 -683.803 -1726.07 346.21 -1048.92 -835.316 191.718 -11.8773 -377.078 1750.35 -154.806 695.078 -183.045 -12.1599 42.2951 -241.783 732.821 -108.594 538.51 571.688 73.8666 745.175 -76.23 228.417 -2176.33 680.204 -58.0048 4716.24 -703.291 -59.3103 -15.2363 -332.291 450.906 -321.323 -238.244 204.372 -127.08 1202.76 333.616 -44.9069 -6.07308 -128.366 871.278 621.925 980.266 2461.58 -75.9216 921.256 833.536 -145.437 6.20467 211.259 -576.337 38.1494 552.045 -134.729 785.182 1318.16 230.836 242.067 -494.186 284.638 471.271 -85.9218 23.5838 -987.773 263.195 23.7419 -459.311 77.9159 81.9709 264.376 -940.667 762.671 896.383 -20.798 85.1004 29.9966 -175.965 417.824 113.811 547.612 -647.309 -1626.3 986.307 -995.665 -853.337 1070.5 -52.2226 -339.313 2555.72 50.5473 400.491 -138.769 -79.3584 -60.1903 -43.5669 396.682 -18.2484 243.183 881.69 168.783 933.804 -149.488 -52.9862 -2214.79 630.591 -144.904 3156.75 -396.714 -152.524 -66.3685 -281.22 990.517 15.8162 -17.7822 567.539 -32.6888 928.767 373.81 284.362 -131.172 -251.211 606.819 429.189 630.566 1574.81 -73.7852 340.484 594.104 20.2472 -258.725 99.5339 -488.651 24.35 493.871 -73.5689 533.496 912.688 252.621 236.799 -484.96 265.841 551.836 -42.3539 160.265 -1085.44 351.998 118.756 -482.277 -27.4543 99.08 111.272 -878.078 462.175 865.616 106.054 124.219 -33.3411 -163.689 289.927 -91.4419 -99.7978 -645.426 -1667.02 617.441 -1073.51 -890.906 501.73 49.9427 -369.944 2117.77 -77.5862 288.085 -132.804 7.32735 68.5222 -66.8157 222.628 119.838 327.539 636.364 344.727 634.253 -32.8606 -7.36685 -2195.19 548.616 -4.66375 2651.64 -616.014 31.9416 32.0776 -144.396 756.94 -179.326 -66.3065 428.208 87.9087 717.72 303.077 227.908 14.4073 -179.683 773.707 194.737 744.475 1011.04 -44.3199 344.832 500.857 -103.631 -321.425 68.9486 -515.736 55.0517 -149.749 194.309 315.38 489.879 -195.777 126.2 -531.01 90.3352 504.887 65.9457 186.404 -1176.9 112.538 140.773 -440.517 160.012 -14.3932 180.749 -909.286 443.471 462.503 77.1239 50.4303 124.464 -222.855 212.175 -432.198 710.804 -712.814 -1630.26 389.847 -1114.18 -809.595 287.75 121.849 -397.638 714.642 17.444 666.29 10.2225 -14.1652 54.3251 -35.7484 541.57 -61.7212 453.8 448.03 -64.3462 397.103 -181.473 95.262 -2206.82 435.189 27.4866 3139.81 -659.056 3.97695 87.2763 -312.936 392.445 -18.4322 -160.207 100.88 25.6004 521.137 142.078 205.619 72.7867 -242.962 410.293 252.374 434.96 801.752 -100.159 470.401 362 71.2472 -373.096 196.374 -511.408 45.0405 1006.06 -45.9063 316.98 488.559 148.304 14.7976 -547.14 114.339 246.249 77.3209 84.0818 -929.84 216.227 18.2116 -581.84 4.74932 -94.6213 82.1602 -860.227 298.454 824.938 68.9454 200.335 40.9511 -169.445 147.925 183.022 14.5063 -653.426 -1703.19 523.23 -977.456 -826.706 470.813 -32.1458 -379.399 765.679 23.1134 107.501 13.3011 21.5877 91.5436 84.9288 193.5 103.439 -161.896 558.768 178.142 502.896 -110.952 -45.9259 -2245.72 298.109 62.3372 794.356 -491.412 -84.3244 53.0605 87.2178 960.424 37.8012 89.2066 470.035 -177.423 1471.27 319.231 74.8522 -125.403 91.0361 840.534 397.498 999.101 2643.5 -206.79 994.004 801.426 135.153 407.666 457.474 -636.861 -130.953 -288.471 -55.4263 824.412 847.674 359.212 532.03 -542.169 949.35 482.915 -140.642 418.946 -950.807 520.73 546.431 -598.982 269.941 -195.56 890.647 -887.622 855.833 515.168 2.46058 -129.931 -36.5725 -356.067 66.5665 684.01 -611.612 -708.975 -1736.91 1438.65 -1058.93 -930.331 1144.17 -207.621 -414.378 3234.1 -117.672 450.803 -185.229 -42.1793 98.7243 -86.7521 298.566 -38.0486 20.6402 586.714 137.977 864.478 -16.4147 343.988 -2307.5 743.249 246.746 3392.05 -329.278 99.2303 71.3478 271.395 998.26 216.307 152.896 415.902 298.928 1602.67 -46.4715 -569.425 -117.963 479.611 577.172 -23.9495 555.105 -258.671 -5.44631 1133.29 1347.77 -161.626 345.939 356.143 -117.85 -88.5769 -1453.37 -166.587 757.044 1087.83 -26.3116 176.579 -110.593 566.209 559.181 -88.2278 352.262 -142.922 267.032 449.352 -154.578 425.071 -93.292 655.299 -198.415 778.14 461.219 -25.9114 -203.451 188.81 3.94958 24.6205 -385.27 -465.338 -167.137 -448.524 934.261 -222.016 -219.433 609.714 -157.739 -103.33 3410.19 -99.8923 149.681 -170.861 22.998 -10.3682 -198.676 231.333 53.0557 -591.57 423.488 153.18 849.289 -223.658 222.146 -554.385 1051.73 -149.216 3575.6 -53.5619 -108.741 12.4126 -239.641 242.009 20.5032 -388.233 239.638 -8.90273 246.066 -30.1633 256.846 41.3987 -251.404 104.448 -52.9908 109.344 342.195 83.3228 32.5091 274.931 29.8791 -477.349 141.949 -489.73 -23.8916 -10.69 84.0405 140.087 182.898 -4.64496 28.0318 -499.097 311.099 146.22 -9.29712 274.249 -1137.19 95.0658 151.972 -511.078 167.563 68.4118 274.483 -862.581 27.7678 584.036 29.998 -65.7084 209.364 -305.943 11.3559 94.7405 -19.2401 -788.671 -1609.34 141.093 -1028.72 -731.462 86.0759 42.577 -565.338 -44.1159 39.8554 223.393 148.696 98.4336 17.4725 -9.54792 259.312 41.3894 -16.8149 117.422 59.6997 181.867 79.9583 300.102 -2348.36 87.1685 113.564 576.855 -634.178 68.5455 63.4984 133.04 705.641 69.1703 118.993 258.153 -64.4965 438.185 113.746 180.89 96.5593 -417.408 359.781 148.155 508.475 470.569 5.33031 141.823 461.202 107.726 -846.683 271.306 -581.131 82.2831 160.719 313.37 192.385 302.877 65.095 318.874 -595.751 427.47 313.807 -71.9795 531.453 -1210.66 234.606 298.714 -654.919 236.516 156.8 264.111 -1049.43 201.981 761.01 168.211 42.4601 73.3527 -369.772 82.9599 293.511 196.575 -740.418 -1800.47 260.29 -1152.13 -837.515 98.269 22.9621 -414.514 457.405 -48.9067 283.554 226.869 -28.7549 7.73227 119.185 181.889 35.8414 -716.637 352.898 171.299 365.907 59.9509 552.064 -2352.82 352.436 32.5786 1417.43 -831.078 -37.7888 135.53 330.014 649.267 75.2119 138.921 301.733 45.4854 980.212 510.011 1230.45 31.6658 -318.6 1109.24 896.344 1473.18 5400.26 -53.3876 -439.765 -338.848 123.613 -457.165 -183.909 -473.332 -63.0765 -1671.7 603.664 522.148 1159.44 1078.78 1065.27 -524.287 762.427 217.52 14.5066 422.864 -1170.92 939.922 115.779 -446.229 -80.5301 232.936 -106.755 -846.85 143.518 1333.05 -31.1978 436.586 115.819 -289.244 584.593 -110.503 -394.5 -629.169 -1610.96 296.749 -1018.95 -841.674 497.957 72.5757 -411.241 1094.24 -210.841 445.626 13.0338 -33.5289 61.2425 -11.2748 60.1472 70.1535 1815.81 842.471 652.134 406.308 245.891 602.018 -2222.58 -199.311 -39.0452 1379.63 -697.676 49.3575 10.133 385.187 1062.76 -46.2142 658.204 404.925 4.8626 423.658 218.268 382.667 75.8283 -208.829 413.906 210.369 521.095 716.508 5.783 322.779 85.2622 40.6435 -511.531 108.273 -489.164 5.3285 428.898 -8.20482 271.438 175.607 140.03 126.628 -445.811 94.1069 171.232 -83.9003 63.354 -1215.9 175.904 98.8453 -440.918 153.627 38.6929 105.581 -834.545 252.693 500.585 50.9747 18.8795 56.2595 -216.954 163.511 178.177 -70.4048 -725.418 -1598.3 262.812 -1012.95 -751.602 329.265 44.3394 -393.182 750.749 20.8625 223.485 101.884 74.6872 85.0175 60.6263 184.487 24.1859 73.942 295.076 151.271 226.306 124.872 -18.6739 -2281.27 93.0232 50.1609 1180.36 -665.034 81.4169 82.4743 6.88497 702.594 19.7934 74.8174 274.984 32.584 1062.55 291.317 82.8582 -1.70062 -205.703 541.337 394.975 634.92 1139.38 7.98416 511.037 729.136 72.656 -392.496 31.3197 -497.671 129.869 795.004 14.802 277.968 710.331 86.4118 395.135 -527.44 306.717 304.962 79.7777 552.789 -1072.75 360.514 214.673 -566.42 310.712 215.741 -6.83524 -914.899 676.959 808.13 -10.7606 108.057 -33.1881 -318.692 253.64 297.503 26.0994 -695.704 -1698.28 768.843 -1016.37 -867.188 520.31 49.3645 -369.423 1504.63 83.023 414.403 53.6303 72.1984 -50.6016 92.83 211.752 136.934 -640.226 445.269 166.488 540.248 11.3818 386.103 -2253.09 648.709 46.7928 2460.75 -613.801 -11.2451 -11.4933 75.4871 659.762 132.892 -133.873 477.093 -94.9513 1339.63 232.738 -113.842 48.7917 147.814 966.509 587.196 1130.79 2685.39 -61.3668 802.841 773.676 -65.1627 417.782 243.43 -5.57475 45.8604 379.452 -92.5673 661.862 1322.23 588.539 360.393 101.563 492.005 411.832 -127.697 267.471 103.207 675.49 101.745 118.434 41.805 39.544 325.787 54.5382 653.382 625.452 -108.562 139.466 -80.138 107.167 335.375 279.286 257.727 42.1026 108.4 963.663 105.96 54.9271 973.629 50.4326 16.3525 2368.62 -66.0742 317.527 -118.386 -13.3512 1.61275 42.6825 258.306 100.969 401.566 865.942 459.001 912.92 52.7804 200.913 99.0661 674.805 -44.3956 3071.51 295.654 -18.583 -37.6172 -91.4375 471.224 -30.9346 32.011 327.262 44.763 127.931 66.903 285.426 0.712882 -201.866 156.607 126.568 155.792 305.145 4.02953 10.6421 174.198 8.65479 -455.172 115.516 -512.31 106.345 -152.977 -10.2422 155.561 147.716 -8.55216 115.796 -536.018 90.8773 86.8842 33.4396 211.825 -1140.45 114.224 129.728 -423.622 102.456 5.49195 178.818 -879.6 46.6163 525.681 7.69602 66.1737 57.1526 -197.615 35.6781 -142.228 310.872 -735.156 -1620.92 43.2435 -1039.73 -852.659 54.7179 55.8954 -343.125 357.032 101.599 199.07 55.3845 38.3985 26.0475 -1.27324 197.753 5.46149 -8.60793 160.838 -3.29107 90.5755 -18.9371 44.5185 -2219.46 102.495 14.8869 772.342 -729.684 5.06338 32.4944 -97.2698 665.372 -45.5703 -15.5858 276.807 113.371 1208.57 305.071 265.082 -68.0253 -101.203 752.235 612.161 884.072 2549.35 4.80918 676.978 584.194 -75.8797 -148.459 149.969 -453.161 22.2392 386.039 -102.923 716.153 1274.87 491.23 333.792 -447.802 327.609 355.786 -112.279 266.691 -1097.97 608.668 145.75 -483.785 -2.0304 62.8903 218.557 -887.517 612.113 1114.1 50.6928 190.241 -21.0997 -171.296 350.031 188.159 250.13 -642.23 -1642.26 891.394 -994.658 -867.908 873.309 121.194 -368.899 2400.12 -96.4289 304.15 -43.7582 17.952 -14.8749 48.2683 272.804 122.373 313.461 819.082 388.712 773.67 -46.1444 81.4231 -2244.07 584.924 1.97411 2964.89 -413.57 7.63058 49.7118 -121.3 1106.56 -171.63 39.2626 588.114 -35.2843 304.712 60.6961 362.612 132.272 -157.944 133.107 31.5212 205.329 512.049 -13.5452 134.056 98.116 25.9677 -420.603 -53.7482 -479.22 -21.7263 -318.338 57.149 210.123 144.219 122.404 58.8699 -495.662 128.649 120.517 7.90336 117.401 -1093.18 211.954 184.739 -503.569 38.437 -40.0926 238.758 -872.059 106.638 646.293 22.6547 18.3006 107.863 -209.874 92.9098 33.9962 -525.562 -711.596 -1684.16 330.698 -1067.86 -809.672 238.46 -38.0487 -403.117 471.927 7.24029 11.7748 3.29558 37.3016 84.5039 61.9244 4.81935 73.5583 -171.585 234.979 155.91 28.2573 -44.5074 67.7233 -2262.69 50.9932 15.2705 225.533 -738.102 12.3224 66.4595 136.685 748.659 138.556 141.44 290.739 57.1895 884.981 284.566 -291.03 275.641 178.69 1156.31 458.562 1236.26 2165.32 34.8581 610.665 100.49 -52.2934 -12.9466 104.284 124.433 11.2272 137.61 71.6231 423.888 621.937 464.946 453.266 92.806 165.627 379.198 -102.316 396.821 315.161 405.688 -29.6714 71.2197 449.567 80.8723 -10.1911 215.363 472.444 -65.0261 63.5817 -156.424 -76.7623 42.3834 397.456 348.236 770.203 276.766 439.838 535.796 216.626 241.797 607.637 62.5213 156.327 1085.27 1.21749 676.519 346.434 -17.3313 53.624 142.777 493.481 -293.802 438.105 524.525 254.476 614.123 95.0934 209.043 633.791 260.767 -26.8721 2427.22 138.292 -64.432 9.85147 57.9514 -103.416 96.2283 311.63 -141.7 -13.4813 1254.23 320.866 94.4786 -113.446 -69.9719 472.937 378.957 489.671 877.621 -77.8663 683.275 1070.11 47.6289 7.03538 213.797 -524.525 19.4276 199.659 -239.264 467.815 944.97 -133.385 68.251 -507.747 149.026 509.56 -68.547 3.24968 -1112.91 310.391 73.0756 -434.385 14.4584 -42.1888 290.792 -893.996 710.269 844.346 14.0821 158.521 142.935 -107.642 177.132 -372.001 -566.115 -745.798 -1718.61 836.883 -989.158 -787.681 642.841 72.6944 -364.191 2249.91 -150.654 229.816 -156.487 24.0101 -57.8719 -105.53 242.345 186.641 76.5629 713.305 259 654.002 -194.184 84.3726 -2294.07 798.298 -33.0126 2989.3 -516.181 -5.61855 -30.0651 -118.347 767.653 -146.051 -240.653 430.947 -37.8312 1219.03 296.63 209.86 -171.082 -43.1351 768.665 618.516 944.821 2680.25 -71.894 590.51 943.635 -112.112 -215.5 241.947 -590.092 -30.107 441.397 -62.1694 694.076 1462.08 340.535 330.423 -469.46 426.914 505.623 -173.593 229.015 -965.45 444.076 87.0176 -469.274 -27.9779 30.1889 158.608 -849.216 620.167 1242.49 -20.8503 172.138 -5.14233 -131.819 411.432 67.0693 188.811 -686.145 -1656.95 898.561 -987.965 -900.887 949.8 -49.3777 -414.905 2322.13 -175.863 418.615 -221.588 26.6497 -95.2828 -10.3848 233.864 262.153 230.378 943.176 391.404 1004.7 -46.3475 138.962 -2268.49 698.542 -88.6842 2996.75 -397.077 -98.4363 -23.8265 -134.509 1149.03 -129.175 73.5216 622.19 -58.2487 1192.31 296.436 120.982 198.184 -170.782 819.175 509.899 1009.27 3892.57 14.4174 303.909 546.955 -53.3281 -458.814 -119.743 -464.235 20.9087 74.0178 -22.0432 350.273 1110.23 359.911 607.547 -487.581 654.466 364.633 33.4928 896.976 -1153.99 641.319 244.498 -469.416 420.843 327.153 189.192 -961.879 562.921 1046.19 121.831 -68.1399 15.7358 -230.971 496.785 468.876 963.463 -655.247 -1667.67 708.632 -1059.29 -884.58 694.149 29.0848 -396.602 1597.06 18.9137 665.827 209.762 40.755 -99.1156 144.281 410.579 181.791 -17.9307 761.309 366.144 713.343 -37.531 474.047 -2283.86 418.151 -51.4684 3766.26 -694.132 -122.913 99.4405 -27.9332 777.168 -51.9331 63.8007 350.834 143.615 1095.51 154.121 -303.036 1252.1 184.021 2016.12 125.833 2203.4 9258.27 -88.7778 -310.357 -1185.81 -35.6993 -941.029 -546.612 56.8478 -252.826 -220.07 -196.431 809.589 1032.9 2041.82 1037.68 -296.561 1421.78 159.299 -49.386 1202.38 141.62 2001.82 405.447 -384.081 1195.75 566.977 556.94 140.486 -310.158 526.326 -100.225 -352.024 -23.5385 -55.2629 844.338 2462.45 1681.28 -4.48966 155.421 702.419 167.375 158.885 1028.69 -91.8877 -71.4461 832.459 24.5857 883.108 1063.61 7.65539 135.874 553.441 574.621 -278.825 -402.659 776.807 700.712 153.566 461.468 495.576 115.279 -522.695 -60.3614 3961.21 -426.997 247.55 -74.3856 397.611 147.972 -24.0511 1277.66 -576.366 -217.441 3644.99 2229.68 -411.659 -105.945 -30.3999 5211.43 2030.36 5538.3 9563.88 -169.343 2191.88 466.016 -156.025 -514.546 -391.394 -464.513 -155.661 2467.04 547.369 1729.88 2438.63 146.236 2272.69 -512.782 526.48 2105.17 -164.488 -554.038 -1237.85 670.216 -128.666 -432.426 -359.352 557.577 -289.819 -842.755 2016.05 372.391 -102.387 -289.741 -280.434 -221.076 1288.69 -725.868 1186.84 -680.088 -1653 1834.11 -1066.34 -739.838 2072.03 -288.285 -298.83 2996.28 443.132 3269.54 -310.283 -31.443 -63.6439 -585.572 2208.07 -643.923 4451.18 1864.53 200.447 2180.31 -292.433 207.9 -2175.74 546.804 -146.511 10206.9 -712.997 -157.521 -52.8218 -239.733 295.229 -161.946 960.741 -547.11 89.3169 1477.97 546.859 1336.2 -140.414 -256.707 1715.39 1383.35 1841.92 8046.65 30.0083 -452.06 -214.251 5.33218 -250.716 -218.717 -515.268 121.131 1408.88 -122.403 757.753 1519.82 1306.83 488.805 -509.625 588.556 496.496 37.4322 765.134 -1076.57 1389.66 132.045 -447.762 15.486 -53.4744 -146.987 -801.249 463.124 1742.56 41.1447 556.795 -51.1423 -148.071 887.32 -245.865 -867.326 -743.63 -1596.76 1231.75 -1099.12 -777.695 1284.28 307.376 -313.292 3676.36 3.81565 268.323 -44.3428 13.1252 -69.0105 31.9874 90.9725 -2.34754 1554.74 1337.2 743.634 557.744 383.518 204.45 -2186.7 185.44 -19.0824 4496.99 -491.457 -4.70494 -3.4236 -179.864 1240.08 -132.839 237.585 442.303 -24.2258 154.821 211.911 -11.8557 101.649 62.3653 304.383 77.7728 306.633 211.636 -51.6716 151.492 11.1907 83.1838 -127.184 170.1 -148.023 95.2108 411.965 222.215 105.553 -44.5088 -5.0707 244.053 -306.583 247.202 189.221 80.1726 244.492 -30.0715 46.388 81.9523 -377.204 215.594 -31.9423 47.5201 -92.5469 155.065 -163.559 67.9798 33.734 22.3016 -68.2461 85.8509 340.395 -93.7058 -77.0955 -263.042 51.1833 -42.4121 -84.5824 65.386 51.6097 -91.5758 -106.471 58.2878 405.691 205.144 57.9958 86.193 43.6711 265.258 -3.50583 123.485 7.53784 85.5999 242.192 94.8164 288.243 -180.34 -9.83482 236.601 336.577 -85.4383 107.582 97.6792 379.601 -251.835 150.624 306.878 -71.4515 595.943 1219.47 -108.476 -474.166 -170.425 300.515 540.183 522.303 953.405 6692.2 -47.0225 237.195 518.436 207.239 487.64 -37.417 140.58 -184.855 -1212.03 -208.695 804.116 1723.28 1149.98 953.193 73.3473 1348.33 436.027 2.99705 1253.36 187.369 1386.56 790.18 39.0394 767.35 292.389 1033.41 73.5505 568.993 796.772 46.6691 -393.165 45.9807 -46.0885 787.538 1050.68 1952.58 49.2041 129.009 1215.48 171.039 112.011 981.22 -58.521 -0.738987 4602.72 -95.017 259.332 11.7212 -28.3148 -81.1671 90.27 171.907 172.074 -837.363 713.778 655.542 900.399 288.91 698.517 166.454 662.705 31.6965 6439.32 182.009 -60.1912 16.3919 -75.3444 183.112 -200.438 57.5569 -51.1441 291.754 368.59 176.582 -110.427 11.6593 36.2469 631.256 247.241 593.352 1894.24 21.4299 332.12 -132.224 85.6558 93.2849 66.3226 -2.83541 95.9617 1613.26 -44.0353 281.067 255.145 111.402 82.705 23.9461 111.24 221.636 106.83 -21.0912 69.0897 356.851 149.945 98.5217 2.05305 -84.215 80.4936 20.7287 194.667 49.7565 95.0903 121.337 -15.9381 62.5531 212.856 -20.5518 -39.8563 50.8713 102.72 457.041 22.2848 12.6747 484.711 31.4007 14.9577 898.923 85.2269 359.463 40.7676 86.3194 45.85 -48.4353 323.604 -32.2333 312.388 332.397 152.204 352.1 138.116 -49.3383 49.7783 118.413 76.1758 1972.35 26.7546 28.7831 86.2182 122.213 89.3807 -41.036 220.673 -273.707 325.358 993.277 18.6045 -295.645 304.066 154.274 701.745 242.285 883.706 2768.09 25.1756 485.772 426.306 8.89035 35.9888 111.126 43.9214 24.2073 -188.734 94.0227 545.037 984.951 479.426 595.246 102.552 588.377 400.338 69.5455 837.03 119.08 693.756 239.006 -4.59513 494.281 323.438 284.2 -2.50654 446.936 412.487 58.0842 -169.184 -11.924 32.8801 440.628 700.515 1662.9 131.253 124.175 481.426 69.8909 92.4559 445.938 -18.0015 13.9605 1791.14 -115.48 471.936 266.05 44.729 3.97563 132.247 390.396 32.9576 -377.747 360.238 293.312 589.823 10.4787 335.008 123.732 365.802 -9.5226 3658.49 31.6059 -72.1513 15.0536 -2.26027 5.02903 -66.8221 165.555 -93.0958 60.2526 555.205 92.0344 -48.6548 226.457 159.811 489.308 259.332 574.524 1573.35 13.795 398.124 177.324 107.262 236.614 164.88 60.1331 86.2362 13.9875 112.01 308.378 539.044 529.826 399.993 117.414 423.832 167.62 73.357 332.831 234.808 487.644 214.387 90.5445 264.059 101.483 87.2142 162.742 234.443 145.539 -20.1301 -43.3483 -45.068 101.234 223.824 719.722 207.994 114.145 256.612 488.813 228.074 81.2434 524.492 -10.9723 56.6575 664.772 128.921 295.29 230.603 -37.3723 17.0132 245.814 111.024 53.166 54.6274 375.082 299.929 402.371 133.906 233.749 232.065 179.011 4.06228 907.66 227.786 26.1626 88.88 207.902 188.203 122.772 343.423 156.876 258.61 2600.77 -210.803 -672.944 869.392 589.212 2441.11 964.557 2976.25 10508.4 -137.287 1216.61 413.501 30.0296 381.025 59.202 236.944 -269.738 -989.869 -261.28 1552.63 2661.11 2375.32 1644.56 61.4623 2017.54 556.218 -57.9747 1766.99 564.841 2150.01 757.271 78.1904 1324.82 288.589 843.79 254.561 903.477 888.796 -126.476 -640.986 -169.279 130.011 1139.36 2704.18 3020.62 142.072 590.023 1913.77 532.455 245.166 2008.85 -158.309 53.1857 3827.93 -18.0967 1138.59 740.826 -86.6182 -80.4711 752.558 717.675 -152.236 -160.066 1502.91 982.475 1487.69 140.197 852.3 401.824 719.184 -58.9039 7469.56 364.764 112.769 -105.015 388.41 571.507 -2.57766 1012.56 112.686 -207.037 4422.4 17.3646 -412.141 -1142.18 -39.2014 1857.98 2024.04 2586.79 9018.79 118.319 1607.96 4303 -179.19 1955.61 -308.433 -92.4583 680.367 4607.53 -737.481 1570.92 5256.98 1588.07 568.078 91.4841 949.063 1519.18 -224.949 1874.63 432.204 2374.57 257.607 -16.9234 143.918 32.2737 -258.839 39.4699 2250.27 3554.09 -152.222 915.141 -225.701 448.912 1830.75 -521.417 345.127 -25.1397 19.0092 3783.67 331.28 -76.6549 3523.53 314.781 29.7536 6976.92 -239.986 1030.98 -506.661 -93.1932 -488.363 389.723 637.033 1021.1 1717.49 3946.38 1836.09 2926.24 48.2019 728.58 -42.1345 3059.23 -327.204 10494.9 1309.66 -708.473 -192.082 -575.526 2187.73 -576.934 -647.712 2131.6 108.695 608.749 -62.2816 -164.605 -102.632 86.9415 474.08 21.5517 486.252 1583.6 51.6351 56.5953 698.771 -115.695 122.878 250.14 102.481 -92.6233 -538.242 48.7722 352.334 760.371 134.07 223.054 30.6154 711.469 388.588 -21.4335 558.762 219.84 264.398 399.225 14.0647 189.517 -81.7884 584.502 174.117 136.448 334.879 -63.6965 -196.75 188.842 48.5013 168.975 -171.961 600.328 119.475 204.604 456.189 183.741 98.8664 190.937 3.52072 75.4898 1069.05 -74.1127 434.072 52.8219 20.8344 -18.208 -11.8743 493.696 -31.8571 184.74 490.38 143.029 509.71 73.1125 474.877 257.282 338.187 32.2452 2618.55 73.1112 -27.4525 13.0428 117.135 35.6198 -8.94721 28.1278 -53.3022 563.441 1523.61 -196.886 -556.246 329.115 256.607 1035.2 562.203 1467.86 4809.92 68.2526 947.711 860.842 201.332 295.555 187.239 160.386 -68.8753 -602.224 -159.225 840.217 1662.08 1034.45 1140.1 155.637 1117.52 408.13 30.6187 1389.11 244.422 1044.2 539.371 120.507 816.694 230.348 387.838 158.542 722.337 503.828 -31.5378 -386.166 -52.3012 75.6019 673.154 1231.28 2643.12 84.3535 297.1 894.026 242.381 134.483 828.468 -50.5115 -1.03861 2604.98 3.19855 659.686 385.056 -77.1776 16.0944 460.14 492.607 -52.7819 -269.502 705.176 623.075 1135.27 128.476 745.566 269.378 772.876 -32.0994 5332.18 310.541 7.61613 -39.8857 170.277 47.0091 116.597 226.669 69.2801 111.734 880.991 -213.544 29.2116 -194.329 7.53629 1042.24 310.41 975.261 4964.14 99.528 -218.975 730.392 -319.331 80.4522 321.074 37.9364 -199.355 1419.7 -410.615 813.782 1676.95 733.986 -68.4768 88.9856 911.598 754.942 -46.2591 496.509 80.6741 976.042 251.527 91.2239 -203.592 -296.908 639.638 57.4578 2.07881 1203.87 -45.3941 223.04 220.195 58.1709 617.264 -689.551 837.54 106.283 19.144 881.049 1.97665 118.182 801.711 130.629 89.8349 3479.65 -270.039 414.831 -359.092 8.57068 -19.4617 -320.283 676.768 -232.803 1325.28 1333.98 402.433 742.338 326.77 100.809 78.6014 537.81 -54.5532 5996.21 -29.8119 -59.0872 -193.617 -271.956 480.32 -461.541 123.976 11.6473 892.259 30.1586 812.984 1088.22 719.597 543.6 375.479 532.015 274.832 -7765.93 1851.02 1260.14 1206.56 1647.36 1345.07 1414.82 2483.44 1828.42 -907.263 1266.93 213.696 163.056 262.431 702.759 1221.83 499.772 635.191 490.47 834.93 547.552 189.096 827.983 1056.34 569.951 747.693 531.951 123.28 313.186 456.764 1327.82 922.046 825.369 1048.62 265.08 452.369 -422.857 346.252 465.867 351.767 552.144 839.334 236.36 1162.95 1190.69 -5876.4 1858.24 491.127 1812.48 1899.33 1682.21 1744.13 752.049 1689.32 -2689.64 816.028 486.362 487.179 1029.64 892.07 1539.3 537.632 1388.45 -7762.65 1721.13 1329.96 2439.06 1632.85 1344.63 1883.45 1137.04 1593.77 -16966 3408.77 3631.18 3290.36 3023.81 2907.89 3592.66 2105.57 3569.69 516.189 699.217 798.521 1027.36 572.828 316.348 126.198 102.456 1028.33 -5344.63 1521.73 629.879 2089.25 896.054 1983.68 1755.64 1696.44 1521.71 -4501.25 1851.31 1480.02 1142.53 719.836 1007.93 1074.09 2466.9 449.119 419.006 1053.27 1205 1101.01 1010.14 768.947 532.604 929.535 677.149 -895.195 593.931 207.655 554.663 417.271 504.366 628.925 812.463 907.271 -1216.55 451.556 1022.52 1415.2 786.14 485.274 912.615 974.699 1229.45 1004.98 955.022 739.555 1046.76 308.65 1032.75 930.119 512.379 187.428 -325.526 389.514 49.1311 539.421 1018.34 607.973 535.714 837.092 699.592 -1528.84 412.663 11.1003 1551.81 -589.042 1059.58 914.337 1675.14 1007.27 124.61 983.001 276.206 935.708 1060.18 988.118 537.013 885.954 805.588 -3855.42 768.554 923.366 1605.77 1560.64 1001.21 1393.12 1669.88 1012.69 -7328.5 1921.43 1478.66 2074.69 1752.4 2118 1144.58 1533.81 1753.56 -3508.02 499.431 2050.16 1257.16 1897.36 1332.2 1222.34 958.481 1116.04 -3556.62 1748.13 997.984 1506.79 1553.4 1090.94 1135.25 939.551 1303.85 691.629 141.346 44.1496 408.81 257.082 485.991 933.999 82.3516 1060.45 -2824.33 1438.41 1512.28 971.46 1846.12 1381.36 776.666 889.831 721.636 -1975.44 917.19 842.034 810.9 1093.89 1425.53 903.624 885.855 1453.04 -113.691 290.467 602.795 855.589 1002.62 715.311 1242.82 255.745 956.251 -2475.57 898.739 1366.01 447.741 678.899 536.198 996.701 872.872 148.628 1409.28 62.6228 1060.99 933.021 391.698 242.094 340.17 848.712 712.752 -4273.48 633.479 1752.15 1441.11 763.947 623.644 976.726 712.137 1407.34 -801.779 70.2879 1028.42 623.988 1111.68 423.642 1233.56 648.746 1072.98 852.822 297.628 363.248 163.3 1022.02 821.615 409.83 145.884 385.738 -875.793 158.202 545.226 951.72 819.87 761.752 603.345 1105.88 291.22 802.912 1099.9 394.22 759.373 419.275 134.574 250.918 243.575 1063.16 -1673.43 51.9485 605.739 1213.11 1138.21 922.139 490.994 1271.66 643.335 1357.93 622.756 554.225 963.935 363.221 168.527 484.485 1006.03 702.559 -2995.52 1082.88 1170.59 1003.95 1161.88 1253.97 1755.27 1141.48 907.731 -6018.79 2409.37 1684.5 1148.59 1416.67 1856.35 730.135 1786.58 771.669 890.608 1041.62 182.691 49.6675 1086.77 697.435 438.923 542.699 756.457 22.412 740.686 254.261 176.311 -50.0792 644.968 570.489 639.556 1150.11 476.899 201.888 467.062 795.252 465.895 357.121 330.333 616.627 7.41565 740.612 564.045 214.308 582.073 509.943 617.796 1002.17 190.37 298.814 -3328.25 817.666 535.244 1257.87 1432.63 1454.64 738.938 632.747 1470.9 -2980.78 68.5413 1307.17 1827.87 1611.69 787.117 1455.36 1046.64 1172.35 -3493.45 1128.38 1187.12 785.657 680.437 1087.85 1474.08 678.944 848.433 565.216 647.691 145.315 891.856 -14.4019 665.019 420.411 579.016 380.365 1515.84 745.283 181.888 243.246 -46.7936 484.664 506.376 931.103 871.22 -6268.21 1529.32 1862.9 1369.55 1728.55 1418.79 1627.53 1748.8 1939.89 1552.87 170.646 481.645 109.806 159.327 744.16 373.245 738.195 62.8914 459.734 708.581 914.064 933.971 739.142 515.897 370.049 38.0207 14.2074 -6967.41 1325.33 1814.26 1453.17 1204.53 1609.7 1632.52 1991.32 1356.11 960.097 872.394 46.52 401.553 981.955 1045.98 1105.89 450.155 485.153 1032.52 359.529 893.987 -18.8164 560.191 213.142 844.843 584.82 445.559 -7622.04 545.676 2147.85 2013.71 2438.01 1964.88 2244.81 2609.88 2290.37 -370.243 1057.75 701.464 190.029 240.059 1119.92 408.178 145.053 1247.09 -3427.25 1462.18 704.679 1295.83 1368.84 1358.77 1505.9 619.198 1046.22 37.8151 733.7 750.993 898.205 284.639 74.746 970.729 783.322 371.041 427.464 520.174 495.053 325.964 684.517 213.751 1079.72 1008.76 654.528 833.563 377.966 68.04 643.593 87.9148 631.041 704.771 840.937 435.469 -936.438 1055.33 581.597 1001.46 788.905 505.624 1136.3 511.589 187.798 -1940.26 1236.23 561.137 936.207 915.384 545.312 693.687 659.644 643.56 -433.837 576.097 659.286 133.971 239.168 631.674 469.337 869.485 798.46 -2983.15 1867.49 1306.57 803.977 543.278 1447.28 1055.23 636.673 954.985 -6316.41 1563.23 1928.93 2008.11 1054.91 2228.42 1252.14 1562.87 1791.06 -2396.79 963.365 1162.02 1338.16 521.021 909.575 1105.89 788.724 1170.98 -5364.37 1148.62 1676.57 950.343 1157.8 1845.82 1075.6 1753.23 1397.88 -29.374 1265.67 794.728 226.329 1212.03 945.609 890.853 400.818 191.012 -1817.33 1630.91 1418.03 989.731 1452.95 1129.06 660.526 957.391 1093.83 2236.12 365.067 -41.3844 0.510087 345.503 253.589 472.281 286.493 802.906 -4142.67 824.425 762.946 1262.99 728.115 742.781 1209.18 1757.69 404.053 59.4312 983.771 158.177 294.1 474.786 570 682.97 76.0133 874.865 -11972.6 2724.61 2528.36 2360.99 2678.56 2901.97 2621.29 2885.01 2479.94 -6.38933 252.884 903.267 27.0116 1051.15 530.195 127.653 1276.94 1050.53 407.92 228.975 707.568 168.939 577.056 788.275 193.381 833.144 703.955 623.776 349.779 288.963 907.721 799.788 399.799 1025.02 489.371 1023.55 -1641.6 1046.42 409.756 1151.46 1126.88 854.463 471.263 226.406 1169.33 -7408.66 2008.83 1476.83 1867.22 1508.52 1791.08 1503.29 1744.06 1961.15 -1485.68 1033.56 292.064 1022.64 1387.65 920.944 1039.85 102.748 952.661 -2355.55 853.474 524.561 681.28 666.043 777.167 729.239 113.218 555.806 -5139.99 1179.53 1454.12 1247.56 1775.35 1109.08 1678.14 1442.18 911.445 