-3199.61 -296.242 -2920.94 3379.12 -1110.68 -2564.01 -3620.24 -5223.14 -2589.43 4995.23 11693.2 6215.43 -6459.67 4568.28 -4901.6 393.943 -1266.82 166.816 13243.7 7250.85 -4940.37 -1238.2 3155.4 -1225.9 -3976.41 -5624.01 -2427.93 -1316.84 2425.9 1273.2 727.944 -5860.62 916.437 -7517.5 1505.92 -595.688 440.574 -1259.79 -1730.44 1214.01 2557.76 578.788 -832.096 -1686.03 35.4307 -3268.71 1782.43 -1143.52 -2157.68 4659.55 -2667.88 2089.33 -187.738 650.473 -772.238 4136.2 -1401.24 -2360.21 -4653.99 -1997.52 1476.97 527.112 1697.69 1996.73 -4685.83 819.549 1815.82 -2376.21 -3494.66 4133.47 945.224 3268.06 -2066 -1111.74 2562.94 1353.53 3439.4 2515.32 345.365 -3038.6 -273.238 -18871.8 2704.56 1166.51 -2634.49 4251.59 -687.426 5355.92 1687.25 3060.01 -10247 81.7721 6780.23 2344.6 2528.69 -4292.92 -475.33 -2618.46 -1512.8 -14899.6 -1341.69 2254.89 -1103.75 -3098.22 485.677 -4018.65 -3352.82 88.6715 2761.53 1520.67 -70.6864 -1504.98 -435.674 -1892.95 -817.643 -2031.4 679.111 2606.85 1072.01 470.738 5125.14 -1926.52 3121.77 3715.18 1676.76 2119.31 170.967 -4143.48 122.573 8795.98 3474.23 2190.39 1841.85 -532.522 -1356.56 1252.13 5774.1 -3016.41 4175.86 729.552 -109.01 4391.69 3135.04 -1414.05 11256.2 -940.431 1716.21 746.018 4170.61 3562.08 345.326 24.8028 1273.44 21193.4 -3672.43 4101.44 326.445 959.204 -692.827 462.001 84.3066 -1297.61 19440.4 -1180.35 -4927.96 2761.59 648.517 2199.75 -1902.7 1027.07 2138.33 3836.47 -3420.52 -700.211 274.744 -1070.88 -770.441 7871.21 -4161.91 -3976 -2402.82 230.257 -608.975 -4783.54 -414.758 3342.55 1600.56 2631.74 -1891.54 423.032 -8787.9 -6214.37 -3185.52 7514.66 647.766 3052.46 5101.18 5827.33 10219.1 -1601.54 8678.9 -4778.98 -647.198 -1132.17 -6981.86 439.623 -2437.61 12768.8 -776.181 3175.64 752.438 1279.82 1981.59 443.326 8107.81 -3625.45 293.837 89.9425 4090.95 -3225.72 2118.38 564.198 57.6019 -910.656 3344.35 -1170.88 72.7601 -1202.57 2345.83 1173.37 1530.45 604.046 962.893 -453.694 -523.457 1150.16 1330.55 182.515 -77.137 1050.92 -248.971 -7.16877 676.325 -1228.92 1532.48 1277.3 826.384 -2090.83 1161.47 6.37537 1815.44 1205.47 -962.49 314.346 565.927 172.99 1281 147.168 1616.12 1785.79 1080.16 -3848.09 2925.18 77.7607 2445.62 1219.7 2203.25 384.692 1517.31 174.912 -1953.91 744.373 1007.65 1238.61 1956.94 651.406 948.139 1702.97 -504.933 -3723.81 1158.44 1515.86 -1001.91 2735.73 782.972 3120.38 1116.42 1374.08 -1966.91 741.239 1503.82 1115.69 2374.15 239.03 632.781 1462.75 -829.787 -7589.17 4128.57 625.467 -4640.74 3507.51 3699.61 2480.97 2805.29 3718.75 -7921.41 2101.09 -1642.1 3587.77 3252.82 1011.47 5277.22 1601.24 1722.83 -5479.06 2563.56 -762.619 103.8 986.677 3076.27 3098.45 -549.008 2326.97 -3243.7 2515.17 1373.47 1777.87 937.71 -1250.47 1938.48 1224.03 1308.47 -124.014 1870.99 853.523 148.335 1040.62 1188.72 -372.712 1765.09 437.538 -2510.77 732.228 588.743 996.654 1178.16 -578.39 867.709 1383 1392.36 -1691.56 1704.04 -642.209 1174.41 783.151 1345.97 1745.43 1680.52 806.83 -5449.71 1962.49 929.335 776.63 3223.22 1016.36 -129.921 1908.16 1293.3 -1727.14 679.668 910.012 990.855 2326.03 287.984 -97.3662 1622.73 -237.21 -6174.52 3827.46 -4158.51 -1194.47 3410.81 5554.58 2131.98 3535.2 3628.26 -3322.8 1708.01 20.1561 -270.398 1990.46 43.3779 1540.86 3094.47 626.461 -5407.02 2802.96 2946.08 591.805 2365.37 429.743 -2180.06 4159.99 1434.23 -678.912 213.543 -341.106 1363.48 -158.419 1647.4 507.366 815.422 379.229 -3319.75 2901.13 -1458.56 2350.97 345.317 2131.94 3415.39 -3076.99 3792.89 -4807.65 2357.81 -667.865 16.6977 1124.74 919.792 3363.27 89.6224 3850.51 